#ifndef BRAIN_WEIGHTS_H
#define BRAIN_WEIGHTS_H

// Auto-generated from shank_brain_horde.pth
// Architecture: 8 -> 256 -> 128 -> 4

// Layer: l1 (256x8)
static const float l1_w[2048] = {
-0.051838f, 0.210680f, -0.073642f, -0.217038f, -0.191517f, -0.076480f, -0.132823f, 0.316183f, 0.029946f, -0.006709f, 0.199017f, 0.356268f, -0.078009f, -0.021879f, -0.231150f, 0.226514f, -0.123167f, 0.354066f, -0.130395f, 0.216549f, 0.094068f, 0.352321f, 0.254919f, -0.139630f, 0.075513f, -0.087500f, 0.046727f, -0.002141f, -0.111612f, 0.156707f, -0.079419f, -0.271345f, 0.274911f, -0.069543f, 0.129393f, -0.268005f, 0.020297f, -0.034756f, 0.050451f, -0.286775f, 0.181702f, 0.173458f, 0.229959f, 0.304501f, 0.228978f, 0.330725f, 0.045268f, -0.328800f, 0.318592f, 0.104438f, -0.098924f, -0.029501f, 0.259354f, -0.037643f, -0.221583f, 0.298256f, -0.152455f, -0.227802f, 0.267458f, 0.024141f, 0.156306f, -0.284187f, -0.286983f, -0.092361f, -0.054925f, -0.358699f, 0.091340f, -0.274632f, -0.090265f, 0.302608f, -0.001015f, 0.062121f, 0.009410f, -0.330086f, 0.252492f, 0.127139f, 0.185987f, 0.187413f, -0.308128f, -0.051668f, -0.306139f, -0.005189f, -0.174620f, -0.118960f, -0.065126f, 0.308983f, 0.103789f, -0.069500f, 0.188204f, -0.112465f, -0.260106f, 0.344893f, -0.268248f, 0.221828f, -0.019661f, -0.001435f, 0.097170f, -0.164232f, 0.088736f, -0.181225f, -0.299313f, 0.142418f, -0.207918f, 0.022608f, -0.087583f, 0.178601f, 0.167966f, 0.060001f, 0.214954f, -0.328148f, 0.176345f, 0.269245f, -0.302172f, 0.159103f, 0.187289f, -0.009490f, -0.301279f, -0.253362f, -0.280187f, 0.148471f, 0.118155f, -0.258226f, 0.124129f, 0.192292f, 0.175567f, 0.337424f, -0.070794f, 0.249329f, 0.093712f, 0.121099f, -0.039344f, -0.066299f, -0.277430f, 0.077920f, -0.214844f, 0.005497f, 0.318674f, 0.152519f, -0.016802f, 0.029079f, 0.254038f, 0.185218f, 0.164324f, -0.118654f, -0.171459f, -0.175387f, 0.155404f, 0.017106f, -0.288535f, 0.067588f, -0.328247f, -0.223121f, -0.294683f, -0.224525f, -0.143630f, -0.131970f, 0.346457f, 0.248855f, 0.289096f, 0.179051f, -0.149724f, -0.015293f, 0.115988f, -0.138801f, 0.093873f, -0.314511f, -0.287294f, -0.303473f, 0.126264f, -0.143212f, 0.257437f, -0.141145f, 0.131459f, -0.106944f, -0.294321f, 0.147612f, 0.357266f, 0.051853f, -0.259505f, 0.070980f, 0.066846f, 0.211412f, 0.338937f, 0.134897f, 0.328792f, 0.334168f, -0.147768f, -0.101969f, 0.235813f, 0.177502f, 0.341594f, -0.033446f, 0.179842f, 0.271715f, 0.004518f, -0.278367f, 0.152940f, -0.237261f, 0.130868f, -0.284075f, -0.122965f, 0.272054f, -0.115627f, 0.283513f, -0.062082f, 0.108489f, 0.152205f, -0.262217f, -0.076186f, -0.128932f, -0.263825f, -0.040380f, 0.078529f, -0.075540f, -0.026494f, -0.322404f, 0.050398f, -0.178545f, -0.162844f, -0.327034f, -0.212389f, 0.018331f, -0.264444f, 0.054232f, 0.104870f, 0.210204f, 0.340049f, 0.221179f, 0.074096f, -0.334556f, -0.099056f, 0.280827f, 0.192185f, 0.104909f, 0.092061f, 0.060354f, 0.305916f, -0.254673f, -0.071802f, -0.335158f, 0.150966f, 0.161864f, 0.142808f, 0.262712f, -0.027896f, -0.237559f, -0.188667f, -0.266679f, -0.152193f, 0.353860f, 0.026204f, 0.311152f, -0.303384f, -0.162392f, 0.155688f, 0.110139f, 0.253701f, 0.203892f, -0.039682f, 0.277559f, 0.038570f, 0.195975f, -0.154773f, -0.038152f, 0.280455f, 0.311769f, -0.312841f, 0.015807f, -0.111149f, 0.178863f, 0.190666f, -0.211755f, 0.176497f, -0.075142f, -0.227549f, -0.126674f, 0.143579f, -0.188550f, 0.244643f, -0.048100f, -0.230427f, 0.203742f, 0.299221f, -0.217914f, -0.055090f, -0.220195f, -0.273694f, 0.254202f, 0.172708f, -0.159596f, 0.036032f, 0.045805f, 0.347601f, 0.263646f, 0.362523f, 0.244100f, -0.113142f, -0.246544f, -0.249976f, -0.031837f, 0.226092f, 0.238922f, 0.227334f, 0.179609f, -0.140116f, -0.302714f, 0.040439f, 0.149704f, 0.150343f, 0.234706f, 0.343361f, 0.295140f, -0.035823f, -0.001930f, 0.278396f, -0.320964f, -0.053692f, 0.110750f, -0.289577f, -0.059223f, 0.196887f, -0.171358f, 0.119254f, 0.101954f, -0.299825f, 0.104863f, -0.083835f, -0.060015f, -0.113717f, 0.189683f, -0.265981f, -0.274730f, 0.268038f, -0.207245f, 0.241685f, 0.236636f, 0.236885f, 0.058589f, 0.133410f, 0.198450f, 0.159394f, 0.182999f, 0.313265f, 0.181742f, -0.124280f, -0.105652f, 0.045794f, 0.341524f, -0.023491f, 0.101025f, 0.165528f, -0.350809f, -0.224540f, 0.330410f, -0.373961f, -0.183713f, 0.215202f, -0.300748f, -0.027000f, -0.076820f, -0.347167f, 0.085919f, -0.252288f, -0.277170f, 0.019291f, 0.217784f, -0.072501f, -0.295485f, 0.060388f, 0.140977f, -0.182088f, 0.254367f, 0.071647f, -0.295487f, -0.261183f, 0.068679f, 0.008654f, 0.255713f, 0.261422f, -0.072189f, 0.204672f, 0.256031f, 0.156990f, 0.253182f, -0.103574f, -0.052430f, 0.221204f, -0.085312f, -0.271474f, -0.177311f, 0.323625f, 0.063770f, -0.325970f, -0.328812f, 0.280671f, -0.222741f, 0.233873f, 0.180850f, -0.120809f, -0.057046f, -0.190734f, -0.067830f, 0.090622f, 0.194224f, 0.277113f, -0.009597f, 0.015652f, -0.049455f, -0.076513f, 0.279139f, -0.328196f, -0.327441f, 0.313734f, -0.321144f, 0.245586f, -0.027144f, 0.129846f, -0.361273f, -0.153857f, 0.159946f, -0.235578f, -0.099919f, 0.269433f, 0.166476f, -0.289335f, -0.269956f, -0.011929f, -0.118635f, -0.043605f, 0.026161f, 0.287239f, 0.040509f, -0.282110f, -0.316447f, -0.031303f, 0.327691f, 0.265401f, -0.220355f, 0.259772f, 0.069018f, -0.015596f, -0.289588f, 0.274099f, 0.214902f, 0.088219f, -0.195724f, 0.023774f, -0.011936f, 0.002557f, 0.035259f, 0.323390f, -0.323449f, 0.103260f, -0.269124f, -0.066708f, 0.226204f, 0.332398f, -0.105205f, -0.014979f, 0.222962f, 0.025202f, 0.258448f, 0.006159f, -0.043730f, 0.351054f, -0.212823f, -0.069300f, -0.055513f, -0.312979f, -0.110939f, 0.187353f, -0.199596f, 0.130033f, -0.337398f, -0.326699f, -0.286082f, 0.262375f, 0.142468f, -0.267047f, -0.236339f, -0.196079f, 0.298765f, 0.086676f, 0.181218f, 0.008140f, -0.071278f, -0.196067f, 0.360853f, 0.001850f, -0.307504f, -0.130036f, -0.317822f, -0.121460f, -0.245390f, 0.320813f, -0.214412f, 0.036843f, -0.192889f, 0.107906f, -0.260052f, 0.290681f, -0.275966f, -0.047155f, -0.102337f, 0.310926f, 0.272199f, 0.321641f, -0.112529f, -0.227744f, -0.076524f, 0.217713f, -0.195521f, 0.096723f, 0.215924f, 0.026117f, -0.056147f, 0.102182f, 0.059103f, 0.251067f, 0.260745f, 0.072373f, -0.217359f, -0.239361f, -0.039407f, -0.305980f, -0.229623f, -0.188558f, -0.177857f, -0.084309f, 0.291888f, -0.094502f, -0.113497f, 0.075281f, 0.255947f, -0.035397f, -0.086138f, 0.021541f, -0.242367f, 0.107012f, -0.310145f, 0.095708f, -0.140199f, 0.105090f, 0.093972f, -0.334543f, -0.201775f, 0.209063f, -0.043641f, 0.244583f, -0.287356f, 0.258611f, -0.259051f, -0.335171f, 0.006048f, 0.246350f, 0.027921f, 0.115229f, 0.089177f, -0.174808f, 0.165424f, 0.164051f, 0.368047f, 0.005261f, -0.241401f, -0.162907f, -0.258932f, 0.289582f, 0.346634f, 0.221501f, -0.281091f, 0.048334f, -0.093715f, 0.202797f, -0.244605f, 0.345986f, -0.346722f, 0.253052f, 0.071709f, -0.279561f, 0.195806f, -0.348684f, 0.228032f, 0.141235f, -0.280470f, 0.208412f, -0.131984f, -0.302490f, -0.114369f, -0.305942f, 0.128056f, -0.092240f, -0.056515f, -0.084185f, -0.273251f, -0.140589f, 0.196242f, -0.139289f, 0.041085f, -0.080513f, 0.169505f, -0.207698f, 0.130187f, -0.235433f, 0.087528f, -0.130768f, -0.212177f, 0.080561f, -0.344494f, 0.095496f, -0.231640f, -0.193777f, 0.212067f, 0.101766f, 0.140070f, 0.185025f, 0.053523f, -0.116159f, -0.129926f, 0.311476f, -0.179529f, 0.088722f, 0.197197f, -0.167868f, 0.154491f, 0.218589f, 0.214246f, 0.304337f, 0.141091f, -0.233998f, 0.279339f, 0.047051f, 0.056103f, -0.225914f, 0.321372f, 0.033402f, -0.121331f, -0.192633f, 0.288239f, -0.130302f, 0.014017f, -0.205307f, 0.180640f, -0.155609f, 0.091624f, -0.236648f, 0.336627f, 0.108571f, -0.057108f, -0.008882f, 0.305639f, -0.099292f, 0.135926f, 0.042942f, 0.220870f, 0.027323f, -0.150380f, -0.167142f, 0.123809f, -0.296514f, -0.099871f, -0.085426f, 0.133234f, -0.044566f, -0.125947f, 0.086451f, -0.229020f, 0.341415f, 0.139646f, -0.174352f, -0.086735f, 0.037717f, -0.225816f, -0.018086f, 0.234250f, -0.318700f, -0.209872f, -0.033345f, -0.207636f, -0.116971f, -0.179417f, 0.188240f, -0.332266f, 0.230000f, -0.307027f, -0.224015f, 0.062106f, 0.050505f, -0.049680f, 0.078310f, 0.071702f, -0.135082f, -0.120056f, 0.206109f, 0.123855f, -0.051894f, 0.258929f, 0.019978f, 0.385252f, 0.379774f, -0.186552f, -0.270774f, 0.222916f, -0.277801f, 0.151223f, -0.056580f, -0.305351f, -0.290623f, 0.173783f, 0.089487f, -0.038621f, -0.089237f, 0.352557f, 0.098716f, -0.022925f, -0.280676f, -0.044528f, 0.128968f, 0.133722f, 0.055623f, -0.321758f, -0.039089f, 0.026320f, 0.200877f, 0.185533f, -0.051312f, -0.173514f, -0.187879f, 0.014810f, 0.066957f, -0.166299f, -0.347844f, 0.186415f, 0.185676f, 0.342421f, -0.240461f, 0.102871f, 0.299759f, -0.174810f, -0.044553f, -0.296131f, -0.083994f, -0.302128f, -0.055620f, -0.188568f, -0.223145f, -0.281001f, 0.383038f, 0.078522f, -0.028162f, 0.339564f, -0.198375f, 0.337966f, -0.079120f, -0.346984f, 0.073392f, 0.158218f, 0.006603f, -0.032711f, -0.200951f, 0.141798f, -0.099297f, -0.101378f, 0.023111f, -0.254950f, -0.084815f, 0.331980f, 0.004428f, -0.260359f, 0.121077f, 0.294819f, 0.116512f, 0.138902f, 0.350342f, 0.013858f, -0.235320f, -0.054534f, 0.205227f, -0.358123f, -0.318858f, -0.169332f, 0.004594f, 0.197156f, -0.308326f, 0.316907f, -0.302894f, -0.157172f, -0.266308f, -0.158957f, -0.115931f, 0.316143f, 0.055198f, 0.349712f, 0.083872f, -0.099400f, -0.373513f, 0.077087f, 0.318054f, 0.180495f, -0.307969f, 0.007097f, -0.236194f, 0.041460f, 0.345266f, 0.291656f, 0.266260f, 0.288743f, 0.300650f, -0.247370f, -0.126770f, -0.002412f, 0.258587f, -0.295117f, 0.017011f, -0.163406f, 0.152960f, 0.282121f, 0.282356f, -0.059984f, 0.289282f, -0.285851f, -0.038516f, 0.327796f, 0.216363f, 0.036959f, -0.036525f, 0.213019f, -0.190859f, -0.174192f, 0.197751f, 0.313504f, -0.103461f, 0.130394f, -0.269904f, -0.261791f, 0.326243f, -0.037750f, 0.033307f, -0.052865f, 0.350265f, -0.037244f, 0.059680f, -0.226118f, -0.067186f, 0.294793f, 0.198444f, 0.212259f, 0.130640f, 0.081107f, 0.084557f, 0.176811f, 0.342243f, -0.050782f, 0.134091f, -0.237497f, -0.057693f, 0.265259f, 0.039280f, 0.083860f, 0.133926f, 0.069640f, 0.268325f, 0.208293f, 0.310465f, 0.031271f, -0.298387f, 0.331799f, 0.270334f, 0.041757f, -0.036663f, -0.045896f, -0.113886f, 0.020175f, -0.121019f, -0.117263f, -0.199004f, 0.257003f, 0.196704f, 0.333442f, -0.293941f, 0.254189f, -0.271206f, 0.394572f, 0.147686f, 0.121067f, 0.211344f, 0.127970f, 0.290441f, -0.046654f, 0.135247f, 0.058310f, 0.379973f, 0.009867f, -0.090797f, 0.315937f, -0.159227f, 0.022196f, 0.292168f, 0.076433f, -0.326091f, 0.047210f, 0.051832f, -0.041505f, 0.240773f, -0.190697f, -0.071783f, 0.142693f, 0.052282f, 0.022380f, -0.305008f, -0.243783f, -0.064857f, -0.054620f, -0.338949f, -0.159507f, 0.131988f, -0.144675f, -0.046681f, 0.240486f, 0.172748f, -0.299947f, -0.390844f, 0.093488f, 0.358858f, 0.202404f, 0.207016f, 0.327305f, 0.155732f, -0.269282f, 0.102021f, -0.332547f, -0.230060f, -0.121024f, 0.304468f, 0.166026f, -0.138591f, 0.358812f, -0.245602f, 0.342334f, -0.101977f, 0.158963f, -0.136567f, 0.134905f, 0.280432f, -0.141204f, 0.030412f, -0.033082f, 0.256094f, -0.271775f, 0.240003f, 0.089032f, -0.254882f, -0.223201f, -0.274438f, -0.115908f, -0.364175f, 0.063619f, -0.242180f, -0.194452f, 0.153674f, -0.184645f, 0.162829f, -0.062596f, -0.237347f, -0.300809f, 0.072691f, -0.055409f, -0.060928f, 0.012518f, -0.033826f, -0.091848f, 0.131260f, -0.266500f, 0.082037f, 0.153781f, -0.005954f, 0.272224f, 0.244516f, -0.132277f, -0.225389f, -0.268217f, 0.147262f, -0.026894f, 0.027672f, 0.252278f, -0.053844f, 0.054499f, -0.194471f, -0.165288f, 0.349863f, 0.024985f, -0.231608f, -0.287254f, 0.225981f, -0.092324f, -0.078754f, 0.124762f, 0.348739f, -0.154850f, 0.209359f, -0.093643f, -0.040704f, -0.301648f, -0.211228f, -0.075858f, -0.051662f, -0.219586f, 0.009222f, -0.025690f, -0.271499f, 0.325170f, 0.194909f, 0.153303f, 0.197981f, 0.296156f, -0.164866f, 0.108534f, 0.243957f, 0.343703f, -0.299817f, -0.107604f, 0.227158f, 0.007277f, -0.104237f, -0.033439f, -0.309031f, -0.036164f, -0.134065f, 0.196459f, -0.093786f, 0.234096f, -0.276036f, 0.036706f, 0.306117f, -0.000833f, -0.002721f, 0.153743f, 0.127624f, 0.326675f, -0.099097f, -0.191613f, 0.214270f, 0.180302f, -0.292557f, 0.270806f, -0.144807f, -0.155864f, 0.368985f, 0.172112f, -0.025188f, 0.225558f, -0.197333f, 0.124236f, -0.066774f, -0.014071f, 0.138863f, -0.118670f, -0.336598f, -0.195497f, 0.348607f, -0.098397f, -0.246285f, 0.165338f, -0.262859f, 0.225078f, -0.327927f, 0.027899f, -0.254723f, -0.289804f, -0.334339f, -0.315472f, 0.192485f, -0.097370f, -0.082807f, 0.066905f, -0.037646f, -0.267117f, -0.146425f, 0.142114f, -0.313855f, -0.002408f, 0.145028f, -0.284373f, -0.257122f, -0.134091f, 0.141512f, -0.313850f, 0.029326f, -0.141236f, -0.306037f, -0.044004f, 0.316831f, -0.174448f, -0.098307f, -0.226157f, -0.323133f, 0.042018f, -0.005971f, -0.015423f, -0.327091f, -0.131514f, 0.128182f, -0.169962f, 0.142397f, -0.079442f, -0.295221f, -0.076244f, -0.328841f, -0.337238f, 0.055168f, 0.001303f, -0.089978f, -0.061673f, 0.365144f, 0.030340f, -0.160385f, 0.106222f, 0.043426f, -0.244479f, -0.333583f, 0.299028f, -0.026542f, -0.016765f, -0.243394f, 0.188366f, 0.247299f, 0.232643f, -0.169977f, 0.326437f, 0.335481f, -0.289485f, -0.295318f, 0.181826f, 0.308915f, -0.340800f, 0.258012f, -0.236079f, 0.047231f, 0.127878f, 0.319705f, 0.254540f, -0.351680f, -0.099040f, 0.230707f, -0.136767f, -0.046349f, 0.059737f, -0.181319f, 0.319922f, 0.211792f, -0.163087f, 0.364476f, 0.336117f, 0.264080f, -0.034091f, -0.093440f, -0.119560f, -0.091333f, 0.177084f, -0.325195f, -0.045739f, 0.312053f, 0.298140f, -0.171974f, 0.126901f, -0.312934f, -0.338951f, 0.092509f, 0.253825f, 0.161525f, 0.307843f, 0.035621f, 0.091596f, -0.236304f, 0.349488f, -0.218378f, -0.091570f, 0.159670f, -0.241620f, 0.311386f, -0.314879f, 0.315630f, 0.098803f, 0.304987f, -0.154299f, -0.142132f, 0.268588f, -0.165779f, -0.136826f, -0.110154f, -0.070692f, -0.038703f, 0.095883f, 0.321449f, 0.323988f, 0.220329f, 0.164069f, 0.164626f, -0.034735f, 0.334146f, -0.043319f, 0.285726f, -0.304424f, -0.136878f, -0.235350f, 0.087093f, 0.086489f, 0.118599f, -0.135831f, -0.015742f, 0.115689f, -0.003570f, -0.044780f, 0.116531f, 0.189735f, -0.138176f, 0.218328f, -0.298976f, -0.161282f, -0.111337f, 0.085614f, 0.220679f, 0.062543f, -0.290674f, -0.078981f, 0.014907f, -0.285811f, -0.359884f, 0.222867f, -0.082630f, -0.163294f, -0.330586f, 0.023457f, -0.242295f, 0.252614f, 0.127559f, -0.335683f, 0.084367f, 0.079919f, -0.308249f, -0.327177f, -0.139947f, -0.213777f, -0.263614f, -0.314643f, -0.289982f, 0.354592f, -0.010508f, -0.033236f, 0.273227f, -0.036541f, 0.153844f, -0.003537f, 0.162633f, -0.288888f, -0.300359f, -0.054167f, -0.103156f, 0.076183f, -0.225269f, -0.270355f, -0.262334f, -0.066856f, 0.268678f, 0.329089f, -0.338591f, -0.050074f, 0.071313f, 0.024009f, 0.115700f, -0.019352f, 0.271078f, 0.278314f, -0.284293f, -0.323506f, -0.004443f, 0.088714f, 0.141829f, -0.263125f, -0.329584f, -0.247996f, 0.058968f, 0.286936f, 0.233452f, -0.117391f, 0.006063f, 0.144452f, 0.311092f, 0.250741f, 0.253863f, -0.105200f, -0.338935f, 0.009117f, 0.017981f, -0.246833f, -0.034640f, 0.333029f, 0.308037f, 0.268100f, -0.055087f, 0.221599f, -0.306144f, -0.325646f, 0.313415f, -0.367956f, -0.040593f, 0.309317f, 0.275817f, -0.281827f, 0.032254f, 0.045941f, 0.340845f, -0.143942f, 0.148877f, 0.231961f, 0.355808f, 0.232485f, 0.270524f, -0.129544f, 0.297801f, 0.154277f, -0.225846f, 0.354145f, 0.320284f, -0.147484f, -0.206711f, -0.256828f, -0.059950f, 0.090384f, -0.110897f, 0.293613f, -0.187469f, -0.287092f, -0.252069f, -0.183418f, -0.015921f, 0.118513f, -0.082246f, 0.303215f, 0.028854f, 0.233749f, 0.051016f, 0.241750f, 0.062824f, -0.116443f, 0.210490f, 0.061505f, 0.267199f, 0.204537f, -0.250264f, 0.296330f, -0.268901f, -0.111318f, -0.085747f, 0.026119f, -0.300407f, 0.112400f, -0.110943f, -0.023399f, -0.220744f, -0.074269f, 0.139608f, -0.346778f, -0.132431f, -0.000079f, 0.224949f, 0.012567f, 0.246795f, 0.008284f, -0.313222f, 0.151066f, -0.219079f, -0.109518f, 0.173336f, 0.017387f, 0.305002f, -0.108854f, -0.293327f, 0.034543f, 0.189778f, -0.278538f, 0.030599f, 0.079664f, -0.222497f, 0.178152f, 0.034256f, -0.184463f, -0.216265f, -0.287342f, 0.185630f, 0.068018f, -0.189168f, 0.353321f, -0.355833f, 0.156144f, -0.020080f, -0.078955f, 0.109100f, 0.343292f, -0.332001f, 0.002938f, -0.010965f, -0.143850f, 0.093371f, -0.188644f, -0.119486f, 0.280388f, -0.051725f, -0.269006f, -0.154684f, -0.153595f, -0.084954f, 0.166523f, -0.159363f, -0.141950f, 0.086859f, 0.330107f, -0.041079f, -0.253632f, -0.214065f, 0.170280f, -0.242935f, -0.071952f, 0.339681f, 0.335296f, 0.178430f, 0.133855f, -0.236966f, 0.099312f, -0.008360f, -0.062155f, -0.278470f, 0.137235f, 0.021338f, -0.027823f, -0.048715f, 0.189437f, -0.351855f, 0.017040f, 0.102440f, -0.296000f, 0.168081f, -0.153083f, 0.062503f, -0.216966f, 0.186625f, 0.047258f, 0.278849f, 0.324685f, 0.189197f, 0.082700f, 0.184798f, -0.275457f, -0.174129f, 0.205100f, -0.015499f, -0.033348f, -0.145623f, -0.066286f, 0.022891f, 0.325797f, 0.188589f, 0.274314f, 0.248696f, 0.064450f, -0.035934f, 0.058946f, -0.337241f, 0.233951f, -0.161827f, -0.162375f, 0.108385f, -0.025624f, 0.284599f, -0.113626f, 0.069861f, -0.302169f, 0.299989f, -0.163425f, 0.118974f, 0.286780f, 0.078388f, 0.269047f, -0.081124f, -0.254263f, 0.199540f, -0.053819f, -0.304894f, -0.187603f, -0.252807f, -0.336028f, -0.060603f, -0.048901f, -0.190574f, 0.155058f, 0.260564f, -0.033658f, 0.275991f, 0.126481f, 0.010632f, -0.118650f, 0.049657f, 0.309765f, 0.287459f, -0.064079f, 0.290362f, -0.064377f, 0.326461f, -0.238647f, -0.243916f, -0.307718f, 0.104488f, -0.054961f, -0.274671f, 0.244295f, 0.271382f, 0.309739f, 0.199801f, 0.184165f, -0.124915f, -0.026596f, -0.143303f, -0.167458f, -0.140791f, -0.185666f, -0.253195f, -0.276796f, -0.188792f, 0.229639f, -0.197934f, 0.252163f, -0.148178f, -0.095742f, 0.292395f, -0.010363f, -0.054846f, 0.151924f, 0.123351f, -0.085457f, 0.279178f, -0.149994f, 0.142002f, 0.041271f, 0.115917f, 0.056502f, 0.035091f, -0.208028f, -0.023275f, 0.322851f, 0.008417f, -0.178558f, -0.246382f, 0.197073f, 0.191827f, -0.352489f, -0.067420f, -0.189625f, 0.159097f, -0.116694f, 0.109249f, 0.257220f, -0.116212f, 0.107336f, 0.198936f, 0.054375f, 0.185092f, 0.350162f, -0.189018f, -0.322986f, 0.188105f, 0.276574f, 0.046321f, 0.064892f, -0.297099f, 0.034927f, -0.002930f, -0.097135f, 0.043157f, -0.307698f, -0.203563f, 0.190341f, 0.257745f, -0.202272f, -0.058516f, -0.000017f, 0.120128f, 0.172931f, -0.070883f, 0.102135f, 0.165203f, -0.174333f, -0.246193f, 0.207233f, -0.285151f, 0.150809f, -0.017333f, 0.002036f, 0.247389f, 0.016379f, -0.041722f, -0.297848f, -0.103933f, -0.260998f, 0.259487f, 0.325989f, 0.238214f, -0.274088f, 0.056840f, 0.179538f, -0.084263f, -0.198015f, -0.125510f, -0.105475f, -0.277477f, -0.232639f, 0.290570f, -0.044509f, -0.161359f, -0.282510f, 0.337288f, 0.138514f, -0.222054f, -0.046719f, -0.312152f, 0.251656f, 0.121493f, 0.170019f, 0.127493f, -0.294874f, 0.178977f, 0.060523f, 0.101052f, 0.258887f, 0.145616f, 0.176244f, 0.197776f, -0.224010f, -0.036810f, 0.096663f, -0.127297f, -0.199694f, -0.044038f, -0.096557f, -0.223479f, 0.144508f, 0.229098f, 0.263812f, 0.132695f, 0.054682f, -0.062938f, -0.316185f, 0.330520f, -0.162187f, 0.052305f, 0.057024f, -0.056776f, -0.150858f, 0.190090f, -0.156188f, 0.031252f, -0.337927f, 0.237281f, -0.280533f, 0.347735f, -0.005042f, 0.336836f, 0.066120f, 0.120114f, -0.268047f, 0.213672f, 0.166501f, 0.256787f, 0.305651f, 0.140359f, -0.096011f, 0.184960f, -0.004625f, 0.262128f, -0.271264f, -0.234439f, -0.189311f, 0.038615f, 0.246096f, -0.172952f, -0.040309f, -0.092030f, -0.251520f, -0.327017f, -0.220242f, 0.002653f, -0.348121f, -0.118110f, -0.176762f, -0.052197f, 0.012696f, 0.068277f, 0.281687f, -0.005466f, -0.295910f, 0.120608f, -0.066405f, -0.285992f, -0.144761f, 0.162009f, -0.194332f, -0.015691f, -0.192679f, -0.042104f, -0.316816f, 0.263028f, -0.320184f, -0.101568f, -0.118445f, -0.258170f, 0.318535f, 0.028984f, -0.221033f, 0.254059f, 0.135977f, 0.168364f, -0.058720f, 0.185445f, 0.238373f, -0.019669f, -0.097377f, -0.319810f, -0.171092f, -0.292010f, 0.092499f, -0.156584f, -0.156496f, 0.315348f, -0.009114f, 0.166916f, -0.094250f, 0.162763f, -0.317581f, 0.178813f, 0.056184f, 0.194178f, -0.199410f, 0.172576f, 0.046691f, 0.073244f, 0.330596f, 0.312196f, -0.277682f, -0.014897f, -0.234195f, 0.268394f, -0.315681f, -0.165317f, -0.099833f, 0.045520f, 0.192091f, -0.098658f, 0.347160f, 0.345621f, 0.094799f, 0.338161f, 0.339266f, 0.137069f, 0.056011f, 0.347367f, 0.182115f, -0.089883f, 0.271898f, 0.242876f, -0.067583f, -0.066786f, -0.068437f, -0.311909f, -0.336233f, -0.109750f, -0.245417f, 0.343722f, -0.209225f, 0.319883f, 0.337990f, -0.366226f, 0.312139f, 0.353501f, 0.203037f, 0.058191f, 0.074462f, 0.119173f, 0.185418f, 0.334528f, -0.152914f, 0.056843f, 0.252834f, -0.066462f, 0.227728f, -0.091088f, 0.323216f, -0.375282f, -0.249559f, -0.141528f, -0.073598f, 0.272667f, 0.214630f, 0.000797f, 0.061503f, 0.203909f, -0.038107f, 0.250450f, -0.127510f, 0.034822f, 0.341963f, 0.296961f, -0.144467f, 0.284465f, 0.091641f, 0.049610f, -0.154340f, 0.014362f, -0.037921f, 0.300344f, -0.287923f, -0.224780f, 0.145296f, -0.286924f, 0.114377f, 0.179721f, -0.315138f, -0.170049f, -0.039767f, -0.152189f, 0.106278f, -0.155619f, 0.043636f, -0.050101f, -0.323364f, -0.082069f, 0.272608f, -0.107631f, -0.132510f, 0.156670f, -0.151531f, -0.116754f, 0.131303f, 0.310854f, 0.087968f, 0.243727f, -0.140125f, 0.297659f, 0.010075f, -0.104065f, -0.263875f, -0.280874f, 0.245296f, 0.082121f, 0.219545f, 0.297519f, -0.091167f, 0.075074f, -0.104169f, -0.332272f, 0.322234f, -0.169357f, -0.170408f, 0.152482f, -0.223568f, -0.131662f, 0.198436f, 0.142496f, 0.064136f, -0.015880f, -0.264890f, -0.232040f, -0.221052f, -0.005604f, 0.143232f, 0.059795f, -0.044834f, 0.380848f, -0.320789f, -0.057691f, -0.305669f, -0.293613f, 0.314417f, -0.085889f, -0.162482f, -0.335749f, 0.078738f, -0.265011f, 0.204157f, -0.261630f, -0.226973f, 0.032808f, 0.155198f, -0.235645f, 0.152391f, 0.121293f, 0.183396f, 0.190864f, 0.223183f, -0.031434f, -0.290842f, -0.069483f, -0.343078f, 0.070725f, -0.088978f, 0.140691f, -0.237231f, 0.017282f, -0.103447f, -0.131574f, -0.288729f, -0.325627f, 0.093248f, 0.138888f, -0.141745f, -0.212111f, -0.329794f, -0.186632f, 0.120749f, -0.331435f, -0.058134f, -0.332386f, -0.274768f, 0.187991f, 0.312020f, 0.354376f, -0.184346f, -0.055947f, -0.090842f, 0.124827f, 0.001238f, 0.111020f, 0.245654f, -0.300108f, 0.113592f, -0.104508f, 0.259187f, -0.289981f, -0.071410f, -0.065098f, -0.229577f, 0.360077f, -0.185383f, 0.315240f, -0.349991f, -0.051996f, 0.352567f, 0.315050f, 0.140231f, -0.234207f, 0.246809f, -0.351431f, 0.084694f, -0.138725f, -0.122973f, -0.178493f, -0.121380f, 0.177730f, -0.250578f, 0.339398f, 0.283291f, -0.106994f, -0.114907f, 0.174538f, 0.185894f, -0.006782f, 0.110459f, -0.310822f, 0.097579f, -0.352143f, -0.044104f, -0.122220f, -0.143261f, -0.166456f, -0.074929f, 0.154285f, -0.155061f, -0.004686f, -0.126942f, -0.267726f, 0.257205f, 0.015769f, 0.144760f, 0.349690f, -0.252409f, 0.248604f, 0.088231f, -0.043121f, -0.091681f, 0.182720f, 0.090639f, -0.150992f, -0.355849f, 0.070146f, 0.077240f, 0.148086f, 0.113559f, 0.048132f, -0.047599f, 0.143406f, 0.163207f, 0.223266f, 0.257674f, -0.051257f, 0.368462f, 0.216225f, 0.201225f, -0.245230f, 0.277163f, 0.339960f, -0.265309f, 0.102290f, -0.362552f, 0.176974f, 0.162529f, 0.300742f, -0.029783f, -0.132195f, 0.001190f, -0.136458f, 0.170574f, -0.180159f, -0.312426f, 0.088390f, 0.255535f, -0.101283f, 0.198848f, -0.353019f, 0.252110f, 0.204974f, 0.252293f, 0.253618f, 0.103165f, 0.328083f, -0.089372f, -0.346153f, 0.244673f, -0.171558f, -0.303719f, -0.071517f, -0.217344f, 0.316862f, -0.121921f, 0.057219f, 0.246501f, 0.284720f, -0.217779f, 0.261681f, -0.044499f, 0.271225f, 0.183333f
};
static const float l1_b[256] = {
-0.122604f, 0.260158f, 0.328039f, 0.080456f, -0.242278f, 0.154435f, -0.013537f, -0.102491f, 0.070532f, -0.277460f, -0.019003f, 0.269479f, -0.236392f, -0.292777f, 0.091993f, 0.226043f, -0.015731f, -0.083049f, 0.167506f, 0.039760f, -0.019025f, -0.324522f, -0.287024f, -0.089574f, -0.165389f, -0.008310f, -0.221998f, 0.007611f, 0.091074f, 0.165702f, 0.187683f, -0.182624f, 0.030898f, 0.357919f, 0.183185f, 0.056313f, 0.160014f, 0.103541f, 0.049597f, -0.343482f, 0.186886f, -0.042185f, 0.180754f, -0.041544f, -0.046061f, -0.155457f, -0.280878f, -0.009869f, -0.177074f, 0.275805f, 0.325626f, -0.102342f, -0.179145f, 0.193128f, -0.291563f, -0.076896f, -0.148756f, -0.215860f, -0.124147f, 0.264159f, -0.299211f, 0.288066f, 0.005793f, -0.042416f, 0.089626f, -0.239533f, -0.253906f, -0.078361f, 0.353892f, -0.101176f, 0.240819f, -0.127075f, -0.316692f, -0.278485f, -0.249422f, -0.139500f, -0.321573f, 0.334284f, 0.137173f, -0.337501f, -0.145548f, 0.220230f, -0.264899f, 0.144466f, -0.214165f, -0.099893f, -0.183355f, 0.064578f, -0.129118f, 0.226680f, 0.158765f, 0.177325f, 0.202465f, 0.260437f, -0.316844f, 0.007398f, 0.115870f, 0.174302f, -0.244610f, 0.099314f, -0.353272f, -0.157721f, -0.115166f, -0.010059f, 0.275858f, 0.297919f, -0.009264f, 0.063906f, -0.046767f, 0.063827f, -0.017347f, 0.005186f, -0.170594f, 0.262564f, 0.285069f, 0.111562f, 0.055549f, -0.028281f, -0.210530f, 0.313924f, -0.118683f, 0.172633f, -0.079429f, 0.317398f, 0.238914f, 0.103481f, -0.202135f, -0.189077f, 0.103266f, -0.172450f, 0.305328f, -0.175319f, -0.006941f, 0.304049f, 0.085729f, 0.352804f, -0.012602f, 0.098016f, 0.237396f, -0.327136f, -0.344448f, -0.005646f, 0.320065f, 0.094497f, 0.072323f, -0.093788f, -0.083259f, -0.287124f, 0.156496f, -0.078275f, 0.015425f, 0.087202f, 0.065655f, -0.059909f, 0.104945f, -0.092703f, -0.043378f, 0.290999f, -0.230533f, 0.187687f, -0.199527f, 0.079251f, 0.249422f, -0.065292f, 0.106098f, 0.109885f, 0.231103f, -0.198225f, -0.023167f, 0.073000f, -0.115415f, 0.334360f, 0.196939f, 0.337207f, -0.019879f, 0.252492f, -0.337547f, 0.151056f, 0.067499f, -0.295602f, 0.176309f, -0.159620f, -0.269186f, 0.326944f, 0.173350f, 0.070322f, -0.038672f, 0.107255f, 0.206739f, -0.022279f, 0.107186f, 0.352200f, -0.215039f, -0.248186f, -0.186789f, -0.098699f, -0.277514f, 0.060690f, -0.184222f, 0.118141f, -0.037771f, 0.335220f, -0.281555f, -0.002821f, 0.256026f, 0.178727f, -0.275094f, -0.226406f, -0.277934f, -0.104420f, 0.047847f, -0.322395f, -0.172604f, 0.290035f, -0.153794f, -0.030204f, -0.175321f, -0.054947f, -0.226345f, -0.273953f, -0.137248f, 0.063482f, 0.160172f, -0.333714f, 0.188150f, -0.097851f, -0.275027f, 0.190885f, 0.225795f, 0.093997f, 0.337982f, -0.347890f, -0.023394f, 0.321589f, 0.126451f, -0.194249f, 0.068744f, -0.320158f, 0.174459f, -0.081130f, 0.115790f, -0.008288f, 0.264630f, -0.152081f, 0.035159f, 0.284487f, -0.082604f, -0.074782f, 0.056590f, -0.130625f, 0.148762f, 0.006999f, 0.005629f, 0.082719f, 0.258845f, -0.001727f
};
// Layer: l2 (128x256)
static const float l2_w[32768] = {
-0.066219f, 0.010255f, -0.044827f, 0.014222f, -0.030933f, -0.021107f, -0.018219f, 0.050712f, 0.010323f, -0.034723f, 0.011941f, -0.032166f, -0.011164f, 0.021302f, -0.053753f, -0.012551f, -0.043537f, -0.051117f, -0.047450f, -0.007217f, 0.057949f, -0.053796f, -0.056860f, -0.049218f, -0.011181f, 0.023348f, 0.041917f, -0.026699f, 0.052035f, 0.040501f, 0.054522f, -0.004869f, 0.013993f, -0.059319f, 0.046577f, 0.055301f, -0.013966f, -0.020513f, -0.013451f, 0.048029f, -0.008699f, 0.032690f, -0.056462f, -0.040242f, -0.029909f, 0.031863f, 0.053592f, 0.012950f, 0.034772f, 0.012356f, -0.004602f, 0.016558f, 0.003771f, -0.012556f, -0.063450f, 0.051282f, 0.000667f, -0.043844f, -0.005470f, 0.038271f, -0.033777f, -0.016918f, -0.005715f, -0.065134f, -0.042437f, 0.021994f, -0.008568f, -0.051899f, -0.017082f, 0.040967f, 0.008871f, 0.059202f, -0.003734f, 0.027873f, -0.016211f, -0.003286f, 0.041912f, -0.006330f, -0.017550f, -0.037233f, 0.035231f, -0.014269f, 0.047214f, -0.012917f, 0.061218f, -0.061170f, -0.044831f, -0.063249f, -0.046607f, -0.041952f, 0.051094f, -0.014861f, 0.051387f, -0.047125f, -0.003167f, 0.062742f, 0.026306f, 0.030224f, 0.012542f, 0.010203f, -0.039376f, -0.041527f, -0.048062f, -0.051860f, 0.057716f, 0.009502f, 0.056161f, -0.008822f, -0.055733f, 0.023841f, -0.024085f, 0.021155f, -0.031952f, -0.045202f, 0.001561f, 0.039937f, 0.023395f, 0.039693f, 0.058057f, -0.014296f, 0.018033f, -0.022210f, 0.045408f, -0.029269f, -0.009495f, -0.016637f, -0.043538f, 0.029138f, -0.003491f, 0.038162f, -0.052241f, -0.053784f, 0.028453f, 0.024371f, 0.029792f, -0.013394f, 0.032007f, -0.053055f, -0.036685f, -0.022104f, -0.057793f, 0.005983f, 0.033725f, 0.034361f, 0.018328f, 0.046169f, 0.039344f, 0.018828f, 0.046962f, -0.057787f, 0.024469f, -0.030243f, 0.058985f, 0.044119f, -0.035180f, 0.039600f, 0.015110f, 0.033785f, -0.062657f, -0.016626f, -0.066282f, 0.045962f, 0.038122f, -0.060904f, 0.024146f, -0.017995f, -0.014654f, -0.016736f, 0.013341f, -0.049945f, 0.057433f, 0.055691f, -0.003525f, -0.017469f, 0.052665f, -0.037126f, 0.057272f, -0.036909f, 0.024898f, 0.043317f, -0.054866f, -0.031740f, -0.031437f, 0.030822f, -0.003180f, -0.002923f, 0.052633f, -0.030353f, 0.014255f, 0.017063f, -0.019012f, -0.021398f, 0.049927f, -0.042719f, -0.059782f, 0.058053f, 0.060566f, 0.060271f, 0.004073f, 0.041746f, -0.025314f, 0.040815f, 0.039580f, 0.025609f, -0.048723f, -0.014743f, -0.061106f, 0.017692f, -0.034591f, 0.036553f, 0.014163f, -0.022648f, -0.011421f, 0.002819f, 0.053562f, 0.024524f, 0.018609f, 0.011852f, 0.057196f, 0.060010f, -0.028150f, 0.055761f, 0.043889f, 0.005751f, -0.031321f, 0.007433f, 0.001712f, 0.033291f, 0.006619f, 0.056728f, -0.041558f, 0.062492f, 0.040320f, 0.004776f, -0.009553f, 0.049263f, 0.040458f, -0.057798f, 0.034483f, 0.058190f, 0.005025f, -0.004990f, 0.025659f, 0.048608f, -0.043893f, -0.025125f, -0.045200f, -0.039556f, 0.036031f, 0.024326f, 0.031626f, -0.062447f, 0.038453f, 0.000779f, -0.024643f, -0.018576f, 0.009771f, -0.005847f, -0.057129f, 0.045612f, -0.007160f, 0.004790f, 0.013304f, -0.036394f, -0.013726f, -0.048120f, 0.042828f, 0.051084f, -0.025289f, 0.034612f, 0.032610f, 0.031060f, -0.013641f, 0.007125f, 0.038752f, 0.042584f, -0.012793f, 0.038535f, -0.017397f, 0.003880f, -0.036496f, 0.039895f, -0.020113f, -0.012956f, 0.046364f, 0.002540f, 0.020350f, 0.004503f, 0.001765f, 0.058066f, -0.020972f, -0.027813f, -0.001665f, 0.027794f, -0.015617f, -0.049804f, 0.019145f, -0.012056f, -0.057338f, 0.014693f, 0.032273f, -0.052326f, -0.031724f, 0.017013f, -0.008278f, 0.028972f, 0.047047f, -0.036103f, -0.043231f, -0.057359f, -0.020169f, -0.017059f, -0.060807f, 0.050472f, -0.055555f, 0.064652f, -0.003361f, -0.004231f, -0.000353f, 0.028394f, 0.050919f, -0.042699f, 0.050396f, 0.018439f, 0.012721f, 0.037017f, 0.032349f, 0.057829f, 0.015344f, 0.047182f, -0.056521f, 0.016582f, -0.012288f, 0.012962f, -0.066132f, 0.053887f, 0.057495f, 0.043882f, 0.039064f, -0.073822f, 0.013801f, 0.018673f, -0.028684f, -0.063212f, 0.008929f, 0.012726f, -0.037047f, -0.048044f, -0.050842f, 0.030176f, 0.004595f, 0.015629f, 0.011122f, -0.017021f, -0.033679f, -0.001318f, -0.024333f, 0.035424f, -0.047520f, 0.004935f, 0.008129f, 0.054664f, 0.040762f, -0.074549f, -0.051042f, 0.019456f, -0.033167f, 0.046581f, 0.056561f, -0.019554f, 0.006106f, -0.017562f, -0.039298f, 0.031303f, 0.032019f, 0.028771f, 0.034652f, -0.001423f, -0.032340f, 0.045102f, -0.033018f, -0.005244f, 0.031633f, 0.061212f, -0.043701f, -0.004477f, 0.008480f, 0.033628f, -0.025991f, 0.046950f, -0.003072f, 0.060422f, 0.011253f, 0.026045f, -0.042739f, 0.014123f, -0.041274f, 0.024698f, -0.023386f, -0.054173f, 0.012370f, -0.048401f, -0.056470f, -0.031610f, -0.026395f, 0.016280f, 0.053162f, 0.009722f, -0.023221f, -0.029337f, 0.013689f, -0.021517f, -0.005642f, 0.037612f, -0.032159f, 0.036100f, -0.045727f, 0.062341f, -0.049331f, 0.030796f, -0.030104f, -0.050112f, 0.047024f, 0.059518f, 0.034668f, 0.017933f, -0.029827f, 0.023941f, -0.063251f, 0.010434f, 0.032085f, -0.017836f, -0.043320f, -0.032849f, -0.006326f, -0.021361f, 0.022683f, 0.009616f, -0.061584f, -0.010438f, -0.056852f, -0.051238f, 0.040388f, 0.058352f, -0.029107f, -0.003050f, 0.058561f, -0.034552f, 0.053675f, 0.003043f, 0.007489f, -0.009905f, -0.052876f, 0.005040f, -0.054794f, -0.008515f, -0.070107f, -0.007517f, 0.042970f, 0.010257f, 0.012388f, -0.027140f, 0.010631f, -0.013542f, 0.053426f, 0.031998f, -0.036170f, -0.050899f, 0.036211f, 0.032001f, 0.024563f, 0.052861f, -0.047567f, 0.046868f, 0.003907f, 0.023262f, 0.018685f, 0.049303f, 0.006418f, -0.010934f, -0.046917f, -0.030473f, -0.022353f, 0.066582f, -0.044036f, 0.015480f, -0.039481f, 0.029856f, -0.011420f, 0.043955f, -0.018704f, -0.008013f, 0.005052f, 0.041569f, -0.023039f, 0.000462f, 0.004734f, -0.042181f, -0.008340f, -0.002059f, -0.045121f, -0.062921f, -0.031638f, -0.060949f, -0.007754f, 0.009293f, 0.027524f, 0.038665f, 0.004040f, 0.008099f, 0.016067f, -0.044122f, -0.008165f, 0.058500f, 0.035120f, 0.010557f, -0.032003f, 0.052995f, 0.043021f, -0.029497f, -0.046202f, 0.000378f, -0.073573f, 0.024134f, -0.034459f, 0.103362f, -0.026297f, 0.069272f, -0.021993f, -0.034608f, 0.069510f, -0.019420f, -0.027016f, 0.065198f, -0.079514f, -0.026082f, 0.039984f, -0.026078f, -0.030631f, -0.048490f, 0.066099f, 0.039238f, 0.093815f, 0.033242f, 0.051041f, -0.041671f, 0.007677f, 0.041311f, -0.025877f, 0.018725f, 0.030838f, -0.007328f, -0.025346f, -0.034552f, 0.053958f, 0.032340f, -0.056900f, 0.016121f, 0.016775f, -0.023763f, 0.068689f, -0.039461f, 0.014812f, 0.044974f, 0.021151f, 0.013809f, 0.063228f, 0.009985f, 0.007978f, 0.022375f, -0.017990f, 0.009398f, -0.005049f, -0.053958f, 0.014971f, -0.028347f, 0.068651f, 0.008474f, -0.027455f, -0.047899f, 0.026464f, 0.033335f, -0.000632f, 0.052614f, -0.051283f, -0.059553f, -0.052488f, -0.045484f, -0.046751f, -0.021305f, 0.082129f, -0.003400f, -0.033272f, 0.053635f, -0.012646f, 0.061069f, -0.045485f, 0.048254f, -0.048524f, 0.074482f, 0.049647f, -0.055914f, -0.029336f, -0.058573f, -0.001747f, 0.060069f, 0.045424f, -0.046873f, 0.072700f, 0.049439f, -0.083948f, 0.029191f, -0.050824f, 0.007066f, 0.025268f, 0.032576f, 0.066467f, 0.002152f, 0.086541f, 0.039631f, -0.002318f, 0.053968f, 0.002100f, 0.003573f, 0.014813f, -0.029797f, 0.010407f, 0.090945f, 0.034002f, 0.039950f, -0.000567f, 0.034445f, 0.048516f, 0.037829f, -0.009999f, -0.047223f, -0.003115f, -0.063021f, 0.037625f, 0.049404f, 0.022006f, 0.032197f, 0.072367f, -0.021287f, 0.002177f, -0.017770f, 0.003537f, -0.052371f, -0.002760f, -0.058127f, 0.025010f, -0.020887f, -0.058233f, 0.012185f, 0.089847f, 0.052624f, 0.030970f, 0.004599f, 0.004519f, 0.073299f, -0.014444f, 0.036146f, -0.031986f, 0.010333f, -0.018810f, -0.067837f, -0.051582f, 0.032030f, 0.046503f, -0.045331f, 0.068313f, 0.014210f, 0.085640f, -0.053961f, -0.046845f, 0.004965f, 0.065080f, 0.026766f, -0.003398f, 0.065694f, 0.020160f, -0.010419f, -0.004172f, -0.013662f, 0.032243f, 0.064285f, 0.034833f, 0.012346f, -0.013022f, 0.067977f, -0.026345f, 0.041988f, 0.013090f, 0.032399f, 0.050167f, 0.007270f, 0.014973f, 0.043386f, 0.051115f, -0.020652f, -0.038090f, -0.014126f, -0.053215f, -0.022227f, -0.019526f, 0.076258f, 0.027155f, 0.037527f, -0.019914f, -0.022390f, -0.024522f, -0.013484f, 0.081138f, -0.013385f, 0.038457f, -0.028601f, 0.037209f, 0.020678f, 0.004872f, 0.057009f, -0.007551f, 0.042188f, -0.021884f, -0.059836f, -0.020878f, -0.005023f, -0.003028f, 0.046260f, 0.026662f, 0.026632f, -0.004389f, 0.076839f, -0.031512f, 0.018263f, 0.037249f, 0.065481f, -0.051901f, 0.057434f, 0.025229f, -0.028007f, 0.028818f, -0.008718f, 0.002310f, 0.023511f, 0.006798f, 0.020789f, 0.036440f, 0.026873f, -0.046864f, 0.022116f, -0.019496f, 0.002979f, -0.023409f, -0.021777f, 0.002151f, 0.019314f, 0.035020f, 0.001561f, 0.026441f, 0.054063f, 0.038155f, -0.009626f, 0.002346f, 0.012573f, 0.026309f, 0.057972f, -0.073561f, 0.081600f, 0.005764f, -0.035138f, 0.001254f, -0.033858f, 0.013358f, 0.063085f, 0.052829f, -0.030920f, 0.048544f, 0.007222f, 0.009517f, -0.027499f, 0.050163f, -0.000757f, -0.027486f, -0.007203f, -0.000321f, 0.025431f, 0.042736f, -0.052948f, -0.037868f, 0.029181f, -0.036064f, 0.001757f, 0.015327f, 0.004729f, 0.037096f, -0.031269f, 0.015866f, 0.007197f, 0.018558f, 0.052498f, -0.010719f, -0.015727f, -0.035875f, -0.012618f, 0.003071f, -0.021533f, -0.046643f, -0.013446f, -0.031311f, 0.011314f, 0.027534f, 0.023465f, -0.015828f, -0.035900f, -0.055256f, 0.057502f, -0.050528f, 0.016095f, -0.017405f, -0.033980f, 0.019590f, 0.055881f, 0.039911f, 0.005514f, 0.003072f, -0.042532f, -0.042365f, 0.011568f, 0.002406f, -0.062210f, -0.053413f, 0.054950f, -0.060063f, 0.059682f, -0.001063f, 0.051702f, -0.033043f, -0.004035f, 0.040691f, 0.054301f, 0.060729f, -0.008952f, -0.040086f, -0.037963f, -0.035956f, -0.062323f, -0.023345f, -0.047359f, 0.045636f, 0.022004f, 0.056278f, -0.029951f, 0.047759f, 0.031969f, -0.055871f, 0.028882f, 0.003454f, 0.008265f, 0.054401f, 0.038381f, 0.059403f, -0.032992f, -0.024640f, 0.030949f, -0.020286f, -0.060451f, 0.015910f, 0.063126f, 0.038693f, 0.019735f, 0.036992f, -0.032613f, -0.023381f, -0.003473f, -0.031267f, -0.007013f, 0.034228f, -0.040086f, -0.000526f, 0.031019f, -0.004880f, -0.008195f, 0.008436f, 0.058947f, 0.022630f, 0.028069f, -0.055113f, -0.038138f, -0.045561f, 0.050652f, -0.015842f, 0.061501f, -0.007932f, -0.039407f, 0.054645f, -0.000933f, 0.053937f, -0.046801f, 0.002406f, 0.022402f, 0.003112f, 0.028442f, 0.045780f, -0.039618f, 0.050457f, 0.006523f, -0.020891f, 0.010180f, -0.007611f, -0.054024f, -0.046640f, 0.010539f, -0.028698f, -0.047848f, 0.014534f, 0.048531f, 0.040867f, -0.016734f, -0.006638f, -0.054561f, -0.058970f, -0.008121f, -0.003579f, -0.006015f, -0.002132f, 0.042931f, 0.044995f, -0.004843f, -0.000000f, -0.030765f, 0.007855f, -0.058865f, -0.026360f, -0.006035f, -0.026049f, 0.009647f, 0.010550f, -0.055344f, 0.009682f, 0.016577f, 0.045550f, -0.035527f, 0.018357f, -0.055742f, -0.036326f, 0.019189f, -0.015879f, 0.029163f, 0.030707f, 0.005733f, -0.027702f, -0.042570f, 0.000795f, 0.051254f, -0.058454f, -0.003704f, -0.005583f, -0.039692f, -0.049734f, -0.048782f, 0.011222f, -0.054925f, 0.049816f, -0.012804f, 0.029140f, 0.013530f, 0.037066f, 0.052656f, -0.057448f, 0.056108f, 0.043596f, -0.006284f, 0.000308f, -0.045050f, 0.045389f, -0.059803f, 0.006719f, 0.001689f, -0.039002f, 0.035111f, -0.046580f, -0.005963f, 0.020196f, -0.033789f, -0.018035f, 0.016574f, -0.037630f, -0.052291f, 0.043484f, -0.049593f, 0.020286f, 0.025691f, -0.049173f, 0.040407f, 0.062188f, -0.042159f, 0.025768f, 0.030620f, -0.025399f, 0.038560f, -0.025902f, 0.037221f, 0.042631f, -0.032450f, 0.033284f, -0.037880f, 0.024283f, -0.011850f, 0.039285f, 0.009777f, -0.041691f, 0.056446f, 0.042581f, -0.054205f, 0.005491f, -0.028121f, -0.054135f, -0.056179f, -0.002142f, 0.060284f, 0.029801f, 0.051491f, -0.027044f, 0.010197f, -0.047334f, 0.049304f, 0.037782f, -0.026716f, -0.044828f, 0.050195f, 0.022668f, 0.064886f, 0.061475f, 0.039619f, -0.000959f, 0.053732f, -0.007432f, 0.034200f, 0.051520f, 0.085549f, 0.042252f, -0.036857f, 0.022174f, -0.000618f, -0.040570f, -0.055886f, 0.026983f, -0.050285f, -0.040749f, 0.078510f, 0.002564f, 0.012372f, 0.050397f, -0.003578f, 0.008331f, 0.000099f, -0.010226f, 0.030389f, -0.006580f, -0.027721f, 0.074798f, -0.022252f, 0.062608f, -0.004495f, 0.060732f, -0.014144f, 0.046826f, -0.011477f, 0.032203f, 0.045346f, -0.020216f, -0.042028f, -0.008393f, 0.040900f, 0.077953f, -0.032135f, 0.021293f, -0.019209f, -0.013619f, 0.075705f, 0.027563f, 0.009619f, 0.010832f, 0.039748f, 0.066582f, 0.018025f, 0.025870f, -0.052412f, -0.017712f, -0.004955f, -0.043857f, 0.020596f, 0.055401f, -0.041784f, 0.060930f, -0.047842f, -0.060374f, -0.034068f, 0.023470f, 0.021619f, 0.031216f, 0.057141f, -0.003980f, -0.043808f, -0.017763f, 0.062102f, -0.052063f, 0.020109f, 0.032591f, -0.037946f, 0.006397f, -0.001730f, 0.038579f, 0.000807f, 0.085116f, 0.010185f, 0.016399f, -0.022870f, 0.029822f, -0.050966f, -0.008265f, 0.035042f, 0.046781f, -0.029677f, 0.029883f, -0.041937f, 0.032976f, 0.032151f, 0.003758f, 0.044644f, 0.053749f, 0.075011f, 0.036389f, 0.051913f, -0.036297f, 0.043739f, 0.005632f, 0.049739f, -0.037561f, 0.050524f, 0.049548f, -0.036649f, 0.007928f, 0.046941f, 0.036187f, 0.067926f, 0.007487f, -0.004723f, -0.018200f, 0.000360f, -0.030262f, -0.000871f, 0.006178f, -0.026660f, 0.087494f, -0.015932f, -0.002900f, 0.037819f, -0.048653f, 0.000395f, 0.047015f, 0.012965f, 0.036011f, -0.035163f, 0.059741f, -0.020632f, -0.023234f, -0.002551f, -0.047263f, 0.080375f, -0.061394f, -0.001805f, 0.003389f, -0.001179f, 0.022061f, -0.019941f, -0.040078f, -0.020165f, -0.040157f, -0.030328f, 0.063619f, 0.033012f, 0.056329f, -0.001019f, 0.017351f, -0.005371f, 0.017982f, -0.061203f, 0.022896f, -0.041320f, 0.029141f, 0.062692f, -0.040960f, -0.000994f, -0.018375f, -0.040223f, 0.058490f, 0.048701f, -0.012812f, 0.054995f, -0.030739f, 0.009747f, -0.013572f, 0.007182f, 0.052422f, 0.004961f, 0.071137f, 0.014333f, 0.021178f, 0.033525f, -0.019525f, -0.011787f, -0.039297f, 0.061405f, -0.030922f, 0.011588f, 0.044641f, 0.026060f, 0.059493f, -0.022076f, 0.000928f, -0.013090f, -0.004697f, -0.036244f, 0.090467f, 0.040574f, 0.031592f, 0.015172f, 0.004002f, 0.066409f, -0.047311f, 0.050589f, -0.001598f, 0.025178f, 0.019068f, 0.051648f, -0.001056f, 0.020602f, 0.064016f, -0.034927f, -0.000814f, 0.047526f, -0.033232f, 0.027511f, -0.001038f, -0.057841f, 0.077892f, 0.034011f, -0.018544f, -0.019587f, 0.070288f, 0.008579f, 0.042761f, -0.011933f, -0.045246f, 0.012522f, -0.012032f, -0.018604f, -0.023612f, 0.010425f, -0.030714f, 0.059597f, 0.040058f, -0.017791f, -0.028277f, 0.015836f, -0.011455f, 0.023933f, 0.061841f, 0.066626f, -0.045603f, -0.001593f, 0.010471f, 0.037060f, 0.013134f, 0.070352f, -0.037837f, 0.009632f, -0.006417f, -0.049158f, 0.043111f, 0.053176f, -0.040751f, 0.051939f, -0.013625f, 0.022506f, -0.050483f, -0.026749f, 0.052536f, -0.034644f, -0.039015f, -0.041508f, -0.041304f, 0.036448f, -0.030815f, 0.002451f, 0.056746f, -0.026999f, -0.010705f, -0.044376f, -0.028138f, -0.049743f, -0.028328f, 0.008515f, -0.020997f, 0.001863f, 0.001787f, 0.020607f, 0.059391f, 0.004430f, -0.052583f, -0.050442f, 0.054769f, -0.021790f, 0.000380f, -0.007490f, -0.034345f, 0.042745f, 0.002296f, 0.021162f, -0.058068f, 0.057037f, -0.038032f, 0.011948f, -0.053931f, -0.053255f, -0.049179f, 0.036455f, 0.027638f, -0.045207f, 0.000608f, 0.025483f, 0.011386f, 0.025440f, 0.034851f, 0.019268f, -0.031573f, 0.048429f, -0.014845f, 0.022742f, -0.047843f, -0.009648f, -0.061261f, -0.038246f, 0.009199f, 0.006837f, -0.003086f, -0.030050f, 0.052330f, -0.008244f, -0.029513f, -0.036400f, 0.033787f, -0.021416f, 0.030183f, -0.055366f, 0.060631f, 0.043225f, -0.050536f, 0.057262f, -0.057122f, -0.013365f, -0.015184f, 0.023145f, -0.020527f, -0.010204f, -0.050377f, -0.014347f, 0.050311f, -0.047208f, -0.018442f, 0.031918f, 0.013758f, -0.024055f, -0.026119f, -0.056516f, -0.059782f, -0.046722f, 0.024238f, -0.052686f, -0.024366f, 0.032349f, -0.041198f, 0.048508f, -0.038318f, -0.061865f, -0.022975f, 0.016458f, 0.060433f, 0.039973f, -0.025668f, -0.030400f, -0.036195f, -0.020603f, -0.000911f, 0.043517f, 0.010929f, 0.038160f, 0.054657f, -0.062691f, -0.030368f, -0.008907f, -0.010724f, 0.055707f, 0.059199f, 0.046515f, -0.012921f, 0.040162f, 0.017434f, 0.041962f, 0.035396f, 0.052856f, -0.024060f, -0.016661f, 0.040624f, 0.030074f, -0.032368f, -0.016374f, -0.044962f, 0.011981f, 0.012934f, -0.043634f, -0.006247f, -0.028338f, -0.026742f, 0.010154f, 0.018880f, 0.021231f, 0.025028f, 0.044255f, -0.056810f, 0.043822f, -0.048250f, 0.002445f, 0.050622f, -0.012200f, -0.038684f, -0.051043f, 0.038024f, 0.054231f, 0.044000f, -0.059838f, -0.059745f, 0.015030f, -0.031576f, -0.018734f, -0.041621f, 0.035849f, 0.055287f, -0.013894f, 0.059136f, 0.024583f, 0.007795f, -0.063414f, -0.003053f, -0.028998f, 0.013630f, -0.046448f, 0.021979f, 0.057844f, 0.057285f, -0.040922f, 0.004055f, 0.015806f, -0.040242f, -0.027862f, 0.059259f, 0.025970f, -0.017829f, 0.022741f, 0.015542f, 0.046086f, 0.052904f, -0.037510f, -0.031606f, 0.017788f, -0.053887f, 0.021521f, 0.057740f, 0.032018f, 0.007984f, 0.005223f, -0.013544f, -0.041465f, 0.048342f, 0.059717f, -0.021038f, 0.036915f, 0.039003f, -0.044103f, -0.033147f, 0.032232f, 0.048567f, -0.054503f, -0.006873f, -0.058668f, -0.033980f, 0.047297f, -0.054084f, 0.023063f, 0.046695f, 0.058749f, 0.000728f, -0.050223f, 0.017853f, 0.019354f, 0.058342f, -0.004500f, -0.001658f, -0.021864f, 0.052762f, 0.005101f, -0.014220f, -0.060184f, -0.047023f, -0.026459f, 0.007121f, 0.057490f, 0.038511f, -0.052027f, -0.012839f, -0.063276f, -0.034556f, 0.015670f, -0.004122f, 0.020600f, -0.005193f, 0.025398f, -0.051891f, 0.009643f, 0.022680f, 0.037025f, 0.019935f, 0.010935f, 0.033107f, -0.008681f, -0.023652f, 0.057638f, 0.061207f, 0.061071f, -0.056064f, 0.003076f, 0.047843f, -0.016921f, 0.037361f, 0.020747f, -0.030827f, -0.040398f, -0.002195f, 0.065904f, 0.003234f, 0.020617f, -0.031855f, -0.060892f, -0.006120f, 0.042408f, 0.002535f, 0.041889f, 0.022503f, -0.031579f, -0.005012f, -0.063520f, -0.034628f, -0.009323f, 0.012486f, 0.054020f, 0.009234f, 0.038883f, -0.043734f, -0.020908f, -0.065615f, 0.076952f, -0.018535f, 0.044439f, 0.067243f, -0.027294f, -0.026981f, 0.047054f, 0.041918f, 0.044258f, 0.032438f, 0.024018f, 0.051125f, 0.071970f, 0.019686f, -0.031872f, -0.037470f, -0.016887f, -0.042956f, 0.054204f, -0.042239f, 0.005342f, -0.001812f, -0.011531f, 0.008136f, 0.056395f, 0.028622f, 0.031005f, -0.013719f, -0.003210f, -0.043608f, -0.002373f, 0.012846f, -0.036000f, -0.020397f, 0.020681f, 0.069700f, 0.044301f, -0.021276f, 0.004743f, -0.003112f, 0.016265f, -0.022058f, 0.000014f, -0.019682f, -0.003181f, 0.003690f, -0.031006f, -0.026679f, 0.014676f, 0.045235f, -0.007227f, -0.019209f, 0.006322f, 0.012258f, -0.029920f, 0.069895f, 0.057943f, -0.042020f, 0.046587f, -0.030995f, 0.047306f, 0.042927f, 0.047906f, -0.044600f, 0.029907f, -0.033584f, -0.053130f, 0.042562f, -0.068302f, 0.045955f, 0.052345f, 0.036371f, 0.050114f, -0.006496f, 0.000210f, 0.061518f, -0.029176f, -0.026865f, 0.036357f, 0.012149f, 0.037208f, -0.047208f, 0.005391f, 0.045269f, -0.065953f, 0.033793f, -0.047332f, 0.007061f, 0.021055f, 0.038049f, 0.043806f, 0.002553f, 0.015819f, -0.043309f, 0.051753f, 0.001615f, 0.040392f, -0.033416f, 0.024986f, -0.016277f, -0.018411f, 0.004428f, -0.049821f, 0.041815f, -0.031447f, 0.057473f, -0.024083f, 0.060380f, 0.032807f, -0.032374f, -0.017019f, -0.044142f, 0.034972f, 0.042986f, 0.022009f, -0.010459f, 0.019789f, -0.020136f, 0.043138f, -0.057826f, 0.046915f, 0.018683f, 0.016865f, 0.025672f, 0.008681f, 0.016757f, -0.055324f, 0.013524f, 0.014306f, 0.003700f, 0.041147f, -0.054625f, 0.054112f, 0.034637f, 0.021439f, 0.056626f, 0.003168f, 0.057549f, -0.037540f, -0.042875f, 0.000768f, -0.035449f, 0.033122f, 0.053189f, 0.006842f, -0.050741f, -0.041385f, 0.045309f, 0.032646f, -0.022827f, -0.017551f, 0.035556f, -0.012927f, 0.050530f, 0.065093f, -0.030008f, 0.050535f, 0.052357f, 0.062183f, -0.050973f, 0.056464f, -0.003912f, 0.057959f, 0.058330f, 0.039295f, -0.045353f, -0.001524f, 0.021912f, 0.060082f, 0.012381f, 0.036709f, -0.061397f, -0.027292f, -0.058100f, -0.055974f, -0.012817f, -0.015489f, 0.036354f, 0.037037f, -0.051812f, 0.045033f, -0.035620f, 0.032046f, -0.029428f, 0.060858f, 0.027184f, -0.040005f, -0.003870f, -0.032067f, 0.050420f, 0.040049f, -0.020553f, -0.027514f, -0.042453f, 0.018324f, 0.019572f, -0.062037f, -0.044424f, 0.019097f, 0.050561f, 0.060504f, 0.052113f, 0.045663f, 0.040358f, 0.002106f, -0.017583f, -0.014307f, 0.060806f, 0.015923f, -0.019334f, -0.019125f, 0.021797f, -0.002228f, 0.055243f, 0.044766f, 0.028937f, 0.023250f, -0.047746f, 0.042040f, 0.005391f, -0.042731f, 0.005166f, -0.010396f, -0.034262f, -0.056792f, 0.007443f, 0.005664f, -0.040712f, 0.064773f, 0.034889f, 0.039960f, 0.035869f, 0.043208f, -0.049800f, -0.040451f, -0.062606f, 0.051267f, -0.012595f, 0.051363f, 0.028136f, -0.006297f, -0.011726f, 0.066910f, 0.043729f, 0.002291f, 0.058651f, -0.058163f, -0.057609f, 0.025016f, -0.010284f, -0.000570f, -0.001048f, -0.051669f, -0.009717f, 0.029420f, -0.043407f, 0.037258f, -0.014498f, -0.030658f, 0.027104f, 0.001464f, -0.018137f, 0.020335f, -0.031515f, 0.016845f, -0.038673f, -0.031306f, -0.048847f, -0.026663f, 0.004612f, 0.023861f, 0.028968f, 0.030280f, -0.034912f, -0.036772f, 0.015415f, 0.016434f, 0.055122f, 0.042296f, 0.000021f, -0.026377f, -0.036397f, -0.056778f, -0.019146f, 0.020978f, -0.057774f, 0.015453f, 0.015891f, -0.062361f, 0.054351f, 0.059398f, -0.027517f, 0.039993f, -0.060662f, 0.018255f, -0.046859f, -0.055591f, -0.049647f, -0.042863f, -0.051059f, -0.011173f, 0.060232f, 0.039183f, -0.021004f, 0.029924f, 0.039262f, -0.026616f, -0.061919f, -0.060911f, -0.051612f, -0.007187f, 0.052644f, -0.037985f, 0.003738f, -0.010064f, -0.046863f, -0.020418f, -0.026844f, -0.037007f, -0.012968f, -0.064048f, -0.004400f, -0.018251f, 0.055368f, -0.025571f, 0.050916f, -0.007469f, -0.000085f, -0.035750f, -0.049217f, -0.007439f, 0.017247f, -0.013996f, 0.052170f, -0.038024f, 0.027477f, -0.055396f, 0.029863f, -0.053108f, -0.037499f, -0.068631f, 0.019627f, 0.005810f, 0.047700f, -0.043140f, 0.049141f, -0.022794f, -0.045182f, -0.000284f, 0.006703f, 0.003594f, -0.062256f, 0.035231f, 0.002070f, -0.002587f, 0.049518f, -0.017317f, -0.059035f, -0.060690f, -0.063204f, 0.057331f, -0.050682f, 0.027488f, -0.022487f, -0.037218f, 0.005980f, -0.044785f, 0.012334f, -0.044844f, 0.013434f, 0.013508f, -0.077356f, 0.056976f, 0.029749f, -0.016250f, 0.012355f, -0.002227f, 0.011231f, 0.051637f, 0.037261f, 0.002994f, 0.016873f, -0.003535f, -0.050981f, -0.007799f, -0.005391f, -0.053392f, -0.051344f, 0.017183f, 0.028640f, -0.029755f, 0.051312f, -0.017784f, 0.048088f, 0.013161f, -0.045650f, -0.015174f, -0.016433f, -0.059408f, -0.051858f, -0.047312f, 0.031810f, 0.055852f, 0.039783f, 0.009464f, 0.046309f, 0.021988f, -0.056835f, 0.016504f, 0.036906f, -0.051378f, -0.048241f, 0.012099f, 0.055274f, 0.052816f, -0.026367f, -0.026893f, -0.062253f, -0.010010f, 0.035131f, 0.059084f, -0.053814f, -0.020243f, 0.004758f, -0.051407f, 0.051767f, 0.037775f, 0.053065f, -0.064870f, -0.022680f, 0.036516f, 0.030426f, 0.030192f, 0.055814f, 0.020468f, 0.033657f, -0.051838f, -0.033994f, 0.033919f, -0.017124f, 0.032652f, -0.008350f, -0.034743f, 0.039625f, 0.049052f, 0.051388f, -0.027246f, -0.030071f, 0.013959f, -0.053743f, -0.003651f, 0.030956f, -0.013650f, -0.000532f, -0.002206f, -0.053479f, -0.026891f, 0.028520f, 0.061071f, -0.033496f, -0.061862f, 0.061211f, 0.054035f, 0.000572f, 0.044018f, 0.048721f, -0.014329f, 0.035146f, -0.028853f, 0.006783f, 0.050961f, -0.000225f, -0.033568f, -0.048844f, -0.027553f, -0.054733f, -0.058346f, 0.044993f, -0.019361f, 0.005956f, 0.029566f, 0.001905f, -0.065517f, 0.013315f, -0.042795f, -0.019557f, 0.040948f, 0.012937f, -0.037298f, 0.009725f, -0.028750f, 0.011584f, -0.038588f, 0.041865f, 0.016108f, 0.064749f, 0.025645f, 0.013245f, -0.030794f, 0.064703f, 0.003359f, -0.004587f, -0.037794f, 0.038582f, 0.037921f, -0.024899f, -0.059685f, 0.011727f, -0.050048f, -0.040898f, 0.017627f, -0.018381f, -0.062088f, 0.034880f, -0.017046f, -0.014777f, 0.010078f, -0.024574f, -0.034395f, 0.048354f, 0.024073f, 0.043800f, 0.029697f, -0.026628f, 0.047886f, 0.037499f, 0.045683f, -0.041359f, -0.030608f, 0.069553f, -0.045068f, 0.029691f, -0.017625f, -0.044650f, 0.055148f, 0.025484f, -0.046953f, -0.028044f, -0.023340f, 0.032844f, 0.022940f, 0.058097f, 0.051479f, -0.012653f, -0.048245f, -0.057999f, 0.048695f, 0.014476f, -0.020904f, 0.052254f, 0.027750f, 0.073704f, -0.005508f, -0.003348f, 0.035981f, -0.000135f, 0.012512f, -0.028577f, 0.039541f, -0.055310f, 0.011172f, 0.007088f, 0.033346f, -0.020498f, 0.034193f, 0.022716f, 0.006906f, -0.063008f, 0.054533f, 0.037248f, 0.041895f, 0.045462f, 0.056753f, 0.039365f, -0.029207f, 0.073046f, 0.038252f, -0.003200f, -0.023350f, -0.010073f, 0.010897f, 0.004919f, -0.028772f, -0.019335f, 0.004207f, 0.021294f, 0.021755f, -0.055610f, 0.042671f, -0.028389f, 0.020042f, 0.053177f, -0.004764f, 0.026894f, 0.057605f, 0.030828f, 0.044877f, 0.056938f, 0.017932f, 0.058247f, 0.013159f, 0.030038f, 0.048144f, -0.032812f, 0.015157f, 0.048444f, 0.009058f, 0.053720f, 0.000109f, 0.056986f, -0.022081f, -0.057216f, 0.075323f, 0.029670f, 0.046134f, 0.046613f, 0.074423f, 0.078015f, -0.027992f, 0.050268f, -0.049758f, -0.030394f, 0.062054f, -0.013634f, -0.013414f, 0.072305f, -0.001983f, 0.003145f, 0.061793f, -0.037724f, -0.002800f, 0.042518f, -0.060639f, -0.057332f, 0.061308f, -0.010387f, -0.001415f, -0.018173f, -0.018956f, -0.010378f, 0.005867f, -0.033295f, -0.027876f, 0.012168f, -0.054223f, -0.017033f, -0.001274f, 0.038228f, 0.074822f, 0.022096f, 0.029707f, 0.058251f, 0.019354f, -0.051993f, -0.033820f, 0.043152f, -0.039475f, 0.053750f, 0.011137f, -0.002774f, 0.032400f, -0.001536f, -0.037054f, 0.047790f, 0.058024f, -0.061415f, -0.067314f, -0.041251f, 0.004792f, -0.050138f, 0.025971f, 0.008213f, -0.018048f, 0.004871f, -0.005652f, -0.026504f, -0.000874f, 0.001406f, 0.032364f, -0.041878f, 0.020535f, 0.032447f, 0.020736f, 0.021354f, -0.063240f, 0.047943f, 0.018888f, 0.030093f, 0.051471f, 0.033529f, 0.012843f, -0.027807f, -0.009808f, 0.042131f, 0.060059f, -0.019979f, 0.057281f, -0.033938f, 0.011712f, 0.000041f, -0.020598f, 0.069834f, 0.039915f, 0.051465f, 0.013480f, 0.024671f, 0.013204f, 0.061037f, -0.015689f, -0.033721f, -0.043685f, 0.019711f, 0.053332f, -0.017233f, -0.006550f, 0.006768f, -0.004616f, -0.048008f, -0.033675f, 0.010694f, 0.084223f, 0.049385f, 0.069991f, -0.037882f, 0.032016f, -0.052924f, 0.021405f, -0.008936f, 0.052309f, 0.015074f, -0.056417f, -0.012621f, 0.012067f, 0.029400f, 0.041943f, 0.040449f, -0.049619f, 0.000269f, -0.029562f, -0.037189f, -0.061795f, 0.028884f, -0.053803f, -0.052981f, -0.038608f, -0.022131f, 0.048781f, 0.039067f, 0.048076f, -0.016099f, -0.058498f, 0.044537f, 0.030670f, 0.043711f, -0.044257f, 0.046332f, -0.044454f, -0.018397f, 0.014459f, 0.052366f, -0.006033f, -0.010412f, 0.032978f, 0.011512f, 0.011275f, 0.030652f, -0.020614f, 0.012065f, -0.046590f, 0.020685f, 0.056263f, 0.010378f, 0.006454f, -0.042946f, 0.009102f, -0.030955f, 0.052928f, -0.031473f, 0.041634f, -0.008442f, 0.056924f, 0.050494f, -0.051921f, 0.002752f, 0.018349f, -0.009532f, 0.005218f, -0.028540f, 0.050479f, -0.035334f, 0.026740f, 0.053307f, -0.039154f, 0.035048f, 0.036801f, 0.044214f, 0.001303f, -0.018148f, -0.034788f, -0.002757f, -0.062973f, 0.028027f, -0.004510f, -0.045800f, 0.050235f, -0.032573f, -0.034628f, -0.048264f, 0.060149f, -0.058675f, -0.028209f, 0.010252f, -0.021907f, -0.056252f, -0.034438f, -0.012403f, 0.004813f, -0.030875f, -0.009495f, -0.057151f, 0.029160f, 0.019570f, 0.032818f, -0.029550f, -0.009309f, -0.057704f, 0.056693f, 0.060369f, 0.001851f, 0.051389f, -0.053007f, 0.032690f, 0.044038f, 0.024110f, 0.055605f, -0.030577f, -0.053639f, 0.044635f, 0.008663f, 0.058701f, -0.034789f, 0.032067f, -0.022082f, -0.013755f, -0.037692f, 0.003258f, 0.054852f, 0.019668f, 0.000514f, -0.053572f, -0.037204f, 0.057325f, 0.033354f, 0.002311f, -0.011069f, -0.063349f, -0.038260f, 0.000662f, 0.000483f, 0.029611f, -0.052013f, -0.001986f, -0.048326f, -0.024145f, 0.042929f, -0.034936f, 0.044750f, -0.012201f, 0.021450f, -0.018573f, -0.037888f, 0.039946f, 0.005730f, -0.048150f, -0.035556f, -0.012220f, -0.031758f, 0.015544f, -0.025057f, 0.020669f, 0.046765f, 0.036199f, 0.002013f, -0.052140f, -0.006416f, 0.008591f, -0.041562f, 0.040828f, -0.035980f, 0.053025f, -0.050228f, 0.032585f, -0.055407f, 0.034697f, 0.059959f, -0.010303f, -0.047095f, -0.023940f, -0.007017f, 0.010652f, 0.005746f, -0.040688f, 0.045990f, -0.013041f, -0.038375f, -0.047220f, 0.035396f, 0.019484f, 0.045294f, -0.043977f, -0.027880f, -0.039826f, -0.009034f, -0.021404f, 0.039835f, 0.007582f, -0.050894f, -0.024247f, -0.038611f, -0.056642f, -0.021989f, 0.054031f, -0.042579f, 0.001403f, 0.007206f, 0.056756f, -0.011077f, 0.031039f, -0.019034f, -0.041964f, 0.036004f, -0.036148f, 0.007198f, -0.017015f, 0.045262f, 0.033872f, -0.010543f, -0.003210f, 0.025755f, -0.045551f, 0.014518f, 0.006213f, 0.010515f, -0.020483f, -0.057345f, 0.046318f, 0.037729f, 0.041858f, -0.018351f, 0.001240f, -0.011353f, 0.062145f, -0.019446f, 0.030408f, 0.033322f, -0.050726f, -0.038372f, 0.037349f, -0.010833f, -0.005560f, -0.033582f, 0.000833f, 0.048485f, -0.039129f, -0.041292f, -0.001974f, 0.059398f, -0.018538f, 0.059419f, 0.028116f, 0.043344f, -0.033509f, -0.045423f, -0.023447f, 0.043681f, -0.042247f, -0.005825f, 0.044875f, 0.040664f, 0.043008f, 0.044404f, -0.050863f, 0.045434f, 0.029797f, -0.031655f, 0.021591f, -0.016894f, 0.001806f, -0.057000f, -0.034448f, -0.042207f, -0.022775f, 0.028957f, 0.050586f, -0.038566f, 0.020329f, 0.035176f, 0.042485f, 0.008809f, 0.013293f, 0.000645f, -0.005500f, -0.035673f, -0.000122f, 0.038768f, -0.029476f, -0.047620f, -0.028331f, -0.010676f, -0.008585f, -0.051667f, -0.026362f, -0.005717f, -0.004094f, -0.025738f, 0.010740f, 0.052647f, -0.056926f, -0.013080f, -0.038428f, -0.044358f, -0.009893f, -0.007924f, 0.054758f, 0.020678f, -0.060992f, -0.007339f, 0.040456f, 0.018967f, -0.015030f, -0.002773f, 0.042889f, -0.003956f, -0.047184f, -0.047748f, 0.010544f, -0.046175f, 0.050041f, 0.025371f, 0.014545f, -0.038460f, 0.048559f, -0.036560f, 0.005286f, -0.060763f, -0.003486f, -0.046172f, 0.053687f, 0.038021f, 0.022851f, -0.031705f, -0.012994f, 0.037933f, 0.007556f, 0.000522f, -0.059737f, -0.026376f, 0.002878f, 0.022770f, -0.058211f, -0.004406f, 0.003358f, 0.033692f, 0.042577f, 0.061446f, -0.033674f, 0.035600f, 0.005869f, 0.054583f, 0.011872f, -0.034484f, -0.001523f, 0.003379f, -0.011292f, 0.031166f, 0.059166f, 0.014815f, -0.017863f, -0.056972f, -0.035647f, 0.014472f, 0.003288f, 0.020889f, -0.009679f, 0.050396f, 0.017951f, -0.012791f, -0.030778f, 0.024111f, -0.010727f, -0.031393f, -0.063882f, 0.028622f, -0.025054f, -0.048731f, -0.062384f, 0.036055f, 0.037096f, -0.008311f, 0.022436f, -0.010038f, -0.055138f, 0.023183f, 0.008631f, -0.021955f, -0.014351f, -0.034613f, 0.011776f, -0.018790f, 0.048110f, 0.050866f, -0.035702f, -0.027966f, 0.013137f, -0.043223f, 0.014549f, 0.005207f, -0.052386f, 0.025796f, -0.008355f, 0.001324f, 0.022907f, -0.049573f, -0.056277f, 0.020398f, 0.056439f, -0.034926f, -0.047301f, 0.014121f, 0.009689f, 0.013662f, 0.002887f, 0.051113f, -0.041327f, -0.040311f, -0.023340f, -0.005355f, 0.013916f, 0.025868f, -0.025600f, -0.046256f, 0.001533f, -0.024595f, 0.043839f, -0.005600f, -0.049861f, -0.057120f, -0.007537f, 0.008766f, 0.024524f, -0.043701f, 0.005327f, 0.006897f, 0.038269f, 0.034810f, -0.060641f, -0.003724f, -0.057402f, 0.003377f, 0.025198f, 0.016623f, 0.044485f, 0.050583f, -0.004450f, -0.051566f, 0.042705f, -0.062086f, 0.009351f, -0.057290f, 0.001449f, 0.033135f, -0.005953f, -0.048280f, -0.048513f, -0.037820f, -0.029168f, -0.046339f, -0.058722f, -0.037927f, 0.018976f, -0.063374f, -0.055641f, -0.011361f, -0.037049f, -0.036891f, 0.054396f, -0.037720f, 0.004449f, 0.006899f, 0.013993f, -0.002340f, 0.024806f, -0.012861f, -0.039330f, -0.061099f, 0.018443f, 0.012085f, -0.062422f, -0.007031f, -0.032447f, 0.032198f, -0.000406f, 0.056130f, 0.015960f, -0.023759f, -0.032607f, 0.055191f, -0.049862f, -0.019469f, -0.009647f, -0.039404f, -0.002775f, -0.007187f, 0.046907f, 0.029328f, -0.030725f, 0.033440f, -0.052511f, 0.048376f, 0.036280f, -0.007095f, 0.050987f, -0.027180f, 0.045104f, 0.011399f, -0.035843f, -0.029528f, -0.007318f, 0.058313f, -0.062776f, -0.043046f, 0.054058f, -0.006621f, 0.039326f, -0.042644f, 0.016039f, 0.004006f, -0.008345f, -0.003531f, 0.026108f, -0.062062f, 0.005817f, -0.028374f, -0.055251f, 0.048621f, -0.002332f, 0.013044f, -0.059331f, -0.037354f, 0.031582f, 0.036320f, -0.050721f, 0.010761f, -0.014029f, 0.004850f, -0.007413f, 0.002726f, 0.025212f, -0.071366f, -0.067459f, -0.062231f, -0.055283f, 0.052911f, 0.025256f, 0.005151f, -0.040279f, 0.004700f, 0.028476f, -0.027693f, -0.033905f, -0.072215f, 0.018755f, 0.018275f, 0.049212f, 0.035843f, 0.037553f, -0.016439f, -0.028231f, 0.052678f, -0.003713f, -0.026637f, -0.046782f, -0.013896f, 0.033689f, 0.008750f, 0.032460f, 0.050428f, -0.008336f, -0.039246f, -0.015684f, 0.020921f, 0.061626f, 0.033877f, 0.025080f, -0.020847f, 0.034350f, 0.000473f, -0.014285f, -0.001373f, 0.040454f, -0.024581f, 0.022228f, 0.011326f, -0.057164f, 0.033007f, -0.066940f, 0.006186f, -0.048841f, 0.013342f, -0.020721f, -0.027415f, -0.023325f, -0.058257f, 0.010201f, -0.014357f, -0.061661f, -0.058049f, -0.002724f, 0.052184f, -0.048323f, 0.035261f, 0.016695f, 0.034916f, -0.069994f, 0.028773f, -0.040614f, 0.005972f, -0.007993f, -0.028812f, -0.019933f, -0.030017f, -0.043772f, -0.049247f, -0.009750f, -0.024206f, 0.018413f, 0.022221f, 0.009515f, -0.055614f, 0.062335f, 0.038443f, 0.021138f, 0.038484f, 0.064384f, -0.015795f, 0.014015f, -0.061821f, 0.022958f, 0.054063f, 0.045649f, 0.032775f, -0.035353f, -0.019316f, -0.036562f, 0.012925f, 0.012679f, -0.000357f, 0.054961f, -0.003121f, -0.019922f, -0.061552f, 0.054694f, -0.056861f, -0.053155f, 0.006758f, 0.009391f, 0.034513f, -0.056416f, -0.042874f, 0.051088f, 0.046115f, -0.051445f, 0.028376f, -0.008107f, 0.022392f, 0.058169f, -0.036076f, -0.045527f, -0.011802f, 0.046935f, -0.028410f, 0.035005f, 0.007874f, 0.053377f, -0.022903f, 0.042404f, 0.012395f, -0.027094f, 0.004475f, -0.052886f, -0.018817f, 0.045241f, -0.061803f, 0.002300f, -0.070609f, 0.053775f, 0.043836f, 0.003580f, 0.014568f, -0.065607f, 0.032090f, -0.038106f, 0.012965f, -0.014230f, -0.055803f, 0.019320f, -0.020492f, -0.030679f, -0.064771f, -0.042409f, -0.063467f, 0.048472f, -0.030497f, 0.055635f, 0.033891f, -0.052418f, -0.032496f, -0.046123f, 0.057661f, 0.030067f, -0.008096f, 0.032630f, -0.046790f, -0.010197f, -0.052122f, 0.037637f, 0.049355f, -0.048163f, 0.005185f, 0.002026f, 0.057506f, -0.007830f, 0.013584f, -0.036428f, -0.058733f, 0.011590f, 0.043764f, -0.025368f, -0.010733f, -0.053594f, -0.011621f, 0.030428f, 0.040326f, -0.055145f, -0.061985f, -0.055456f, -0.005708f, -0.053936f, -0.043615f, 0.032116f, 0.034709f, 0.044837f, 0.008104f, -0.049642f, -0.038304f, -0.045912f, -0.054208f, -0.001831f, 0.034923f, 0.047351f, -0.034217f, -0.005967f, -0.051516f, -0.012064f, 0.055885f, 0.017027f, 0.046840f, 0.021562f, 0.046688f, 0.048330f, -0.018651f, 0.002806f, 0.052694f, -0.037552f, 0.063676f, 0.046065f, 0.001263f, 0.058076f, -0.030595f, 0.054518f, 0.061387f, -0.007052f, 0.019941f, 0.054561f, -0.054067f, -0.039869f, -0.047014f, 0.047916f, -0.049407f, -0.055280f, -0.016484f, 0.038757f, -0.060713f, 0.022498f, 0.020380f, -0.054393f, -0.046058f, -0.044564f, 0.001711f, -0.045676f, 0.019410f, -0.048056f, 0.040324f, 0.003049f, 0.015630f, -0.014657f, -0.010599f, 0.008350f, 0.032270f, -0.016666f, -0.057188f, 0.050598f, 0.018694f, 0.040976f, 0.027377f, -0.065235f, 0.003923f, -0.053325f, -0.060501f, 0.025086f, -0.013619f, 0.027725f, 0.027118f, -0.032143f, -0.030572f, 0.060651f, -0.030463f, 0.018240f, -0.060430f, 0.011487f, 0.038412f, -0.073131f, 0.028132f, -0.042845f, -0.022450f, -0.030034f, -0.026687f, -0.028376f, -0.014052f, -0.064390f, 0.004322f, -0.032927f, -0.035716f, -0.014356f, 0.002486f, -0.038866f, 0.023314f, -0.015819f, 0.054414f, 0.062337f, -0.041859f, -0.034971f, -0.056697f, 0.046412f, -0.023854f, 0.037088f, -0.019968f, 0.014820f, -0.018799f, 0.013135f, -0.046909f, 0.006731f, 0.045159f, -0.048370f, -0.034087f, -0.051785f, 0.011079f, 0.017641f, -0.052181f, 0.000622f, 0.030203f, -0.037384f, -0.031686f, -0.052176f, 0.041016f, 0.049906f, -0.054050f, -0.039723f, -0.027829f, -0.051306f, -0.015071f, -0.033677f, -0.038052f, 0.033690f, 0.001121f, -0.033870f, -0.009718f, -0.046920f, 0.014580f, 0.015206f, -0.042100f, 0.032336f, -0.016884f, -0.036818f, -0.018849f, 0.003877f, 0.022985f, 0.012858f, 0.043482f, 0.036928f, 0.062825f, -0.008804f, 0.044129f, 0.002651f, -0.031454f, 0.047059f, 0.001145f, 0.034545f, 0.024203f, -0.050835f, 0.047180f, -0.064873f, 0.006031f, 0.030572f, -0.028178f, 0.000791f, 0.009927f, -0.028421f, 0.035640f, 0.004123f, 0.038281f, 0.012405f, -0.017576f, 0.027898f, 0.019882f, 0.041983f, -0.031105f, -0.003674f, -0.027494f, -0.000335f, -0.054137f, -0.041788f, 0.059685f, -0.022721f, -0.000977f, -0.008745f, 0.046018f, 0.020851f, 0.068538f, -0.007901f, 0.028723f, -0.014940f, -0.012659f, -0.069415f, -0.065529f, -0.036088f, 0.022650f, -0.007970f, -0.053542f, 0.025601f, -0.079961f, -0.061311f, -0.021643f, -0.036436f, 0.053572f, 0.003635f, 0.019311f, -0.041130f, -0.020189f, 0.026181f, 0.005060f, 0.043086f, 0.045489f, -0.061309f, -0.011920f, 0.015406f, -0.009507f, -0.013403f, 0.044791f, -0.067045f, -0.035009f, -0.051560f, 0.066818f, -0.029459f, 0.056079f, -0.059966f, 0.031784f, -0.028575f, -0.003577f, 0.022735f, -0.015744f, 0.025431f, -0.047915f, -0.075198f, 0.044234f, 0.045691f, -0.004915f, -0.036539f, 0.030162f, 0.013724f, -0.074241f, 0.021994f, 0.030741f, 0.045229f, -0.011429f, -0.030174f, -0.014164f, 0.022891f, 0.035137f, -0.041337f, -0.035198f, -0.033635f, 0.055991f, -0.038417f, -0.005814f, -0.034946f, 0.043618f, -0.029233f, -0.068868f, -0.045993f, 0.044158f, -0.002446f, 0.004155f, -0.002839f, 0.023639f, 0.029555f, -0.013397f, -0.043354f, 0.030857f, 0.030904f, -0.032658f, 0.046553f, 0.037686f, -0.001110f, -0.031524f, 0.026279f, 0.019843f, -0.033775f, -0.008151f, -0.038566f, -0.058886f, -0.033006f, 0.009406f, 0.021445f, -0.025121f, 0.051073f, -0.007681f, -0.037145f, 0.010249f, 0.042457f, 0.001227f, 0.003465f, 0.036901f, 0.048261f, -0.031497f, -0.049077f, -0.055825f, 0.043094f, -0.067323f, -0.052298f, 0.001712f, 0.029907f, -0.003083f, 0.030855f, -0.009714f, -0.053080f, -0.061455f, 0.028416f, -0.049102f, 0.033766f, -0.003391f, 0.013064f, -0.000853f, -0.053079f, -0.045412f, 0.040028f, 0.012081f, -0.028071f, -0.021872f, 0.029851f, 0.042029f, 0.010492f, 0.035251f, -0.057024f, -0.028742f, -0.026961f, -0.047591f, -0.012159f, 0.046145f, -0.015304f, 0.050293f, -0.029312f, -0.022912f, -0.019032f, -0.023074f, -0.035024f, -0.003855f, -0.051900f, -0.043176f, 0.055555f, -0.051988f, 0.057136f, -0.057328f, -0.020967f, -0.012910f, 0.004402f, -0.021300f, -0.042016f, -0.052340f, -0.011287f, 0.004730f, 0.014883f, 0.036259f, 0.022546f, 0.010528f, -0.048910f, -0.040907f, 0.013478f, -0.061180f, 0.019774f, 0.050315f, -0.049790f, 0.027245f, 0.007518f, -0.060925f, 0.059474f, -0.011349f, -0.026654f, 0.034243f, 0.040829f, -0.021562f, -0.025941f, 0.044852f, -0.050669f, -0.047079f, 0.038784f, -0.025162f, 0.059803f, -0.037432f, -0.059751f, -0.046218f, 0.032607f, 0.016866f, -0.027030f, -0.005789f, -0.014899f, -0.040792f, 0.042107f, -0.047081f, 0.059407f, -0.006724f, 0.020871f, 0.004723f, -0.044083f, -0.015038f, 0.054897f, -0.038311f, -0.027796f, 0.020426f, 0.035530f, -0.046646f, 0.043902f, -0.051079f, -0.035686f, 0.009060f, 0.017779f, 0.054051f, 0.033426f, 0.000460f, 0.020162f, 0.044296f, -0.034960f, -0.009316f, -0.031330f, 0.045121f, 0.050233f, -0.063778f, 0.007168f, 0.016327f, -0.058481f, 0.004604f, 0.002782f, 0.036005f, -0.005025f, 0.010355f, 0.033380f, 0.002837f, -0.064500f, 0.002595f, 0.033513f, -0.049935f, 0.042662f, 0.021509f, -0.035319f, 0.056074f, 0.042597f, -0.025573f, -0.018935f, -0.048250f, -0.028418f, 0.010716f, -0.013110f, -0.053346f, -0.028005f, -0.003346f, 0.031091f, 0.000513f, 0.021328f, -0.003200f, -0.022626f, 0.036952f, -0.028617f, -0.019076f, 0.052459f, -0.003469f, 0.035019f, -0.059470f, -0.053496f, 0.041961f, 0.038712f, -0.002343f, 0.041595f, 0.015429f, 0.030840f, 0.046381f, 0.042086f, 0.018471f, 0.015387f, -0.002836f, 0.044422f, 0.038229f, -0.048235f, 0.046013f, -0.038140f, -0.039555f, 0.017140f, -0.014247f, 0.030958f, -0.063857f, -0.013060f, -0.012873f, 0.021555f, -0.024805f, -0.034152f, -0.048900f, 0.017555f, 0.055350f, 0.035160f, -0.004034f, 0.001112f, -0.031212f, 0.041641f, -0.027453f, -0.000090f, -0.000282f, -0.010270f, 0.030192f, -0.019492f, -0.006265f, 0.011515f, 0.007191f, 0.030187f, 0.000638f, 0.026233f, -0.049079f, -0.032867f, -0.033692f, 0.041423f, -0.039819f, 0.032968f, 0.057773f, 0.044602f, -0.035272f, -0.008323f, -0.016021f, 0.015039f, -0.062295f, -0.058400f, -0.027190f, 0.059126f, -0.054044f, -0.003074f, -0.035931f, 0.034197f, -0.051421f, -0.001817f, 0.019982f, 0.018179f, 0.035346f, 0.001994f, 0.029781f, -0.012336f, 0.017165f, 0.043064f, -0.053639f, 0.031893f, 0.044110f, -0.023083f, 0.038884f, -0.055905f, 0.026296f, 0.011445f, -0.041621f, -0.042591f, 0.037665f, 0.007666f, -0.006448f, -0.046524f, -0.034304f, 0.019123f, -0.013808f, -0.043957f, 0.026663f, 0.009124f, 0.018614f, 0.056412f, -0.007054f, 0.033065f, 0.055385f, 0.021355f, -0.053990f, 0.053075f, -0.046572f, 0.006028f, 0.021432f, -0.063292f, 0.010598f, 0.017097f, -0.025628f, -0.057995f, -0.023009f, 0.051630f, 0.028718f, 0.041514f, 0.042813f, 0.034299f, -0.026386f, 0.039885f, -0.008745f, -0.020799f, 0.027679f, -0.056343f, 0.017791f, -0.052837f, 0.027405f, 0.056486f, 0.025039f, 0.007919f, -0.013742f, 0.054343f, -0.043322f, -0.039799f, 0.023791f, 0.048158f, -0.004737f, 0.030920f, -0.053139f, 0.042480f, -0.042892f, -0.033197f, -0.053687f, 0.046053f, 0.036667f, -0.048990f, 0.014056f, 0.052674f, -0.040160f, 0.010467f, -0.041067f, -0.019549f, 0.005968f, -0.053931f, -0.043420f, -0.002518f, 0.054368f, 0.001215f, -0.060172f, -0.003277f, 0.050916f, 0.005530f, 0.033609f, 0.052668f, 0.057957f, -0.049906f, -0.044886f, 0.006559f, -0.009316f, -0.012392f, -0.046279f, 0.033185f, -0.023778f, -0.008525f, -0.059535f, -0.009385f, 0.016946f, 0.007642f, -0.051303f, -0.034623f, -0.041650f, 0.009338f, -0.017771f, -0.000689f, 0.060891f, 0.050137f, 0.007053f, -0.055777f, 0.003923f, -0.001150f, 0.060555f, 0.022468f, 0.043847f, -0.041207f, 0.049253f, -0.031684f, -0.031152f, 0.048387f, -0.017633f, 0.004591f, 0.061827f, -0.023606f, 0.017766f, -0.057336f, 0.012447f, -0.059118f, 0.003818f, 0.040226f, -0.048148f, -0.020349f, -0.014587f, 0.021432f, -0.040790f, -0.063820f, -0.026280f, 0.018429f, -0.051361f, 0.016718f, 0.007969f, 0.027337f, 0.014155f, 0.055992f, -0.036087f, -0.050371f, 0.021647f, 0.060007f, -0.020873f, 0.009996f, 0.025460f, -0.056670f, -0.039294f, 0.048073f, 0.041936f, 0.041507f, 0.060298f, -0.060566f, 0.035073f, 0.060018f, 0.017117f, -0.034256f, -0.036106f, -0.006951f, -0.000844f, 0.028473f, 0.001923f, 0.054847f, -0.041683f, 0.058723f, -0.046414f, -0.055413f, -0.049119f, 0.043959f, -0.038931f, -0.049474f, -0.027491f, 0.003618f, 0.043423f, 0.021309f, -0.056015f, -0.014257f, 0.000142f, -0.058541f, -0.064000f, 0.055889f, 0.008893f, -0.021505f, -0.024560f, -0.041282f, 0.030649f, 0.035332f, -0.029750f, 0.038784f, 0.055907f, -0.053938f, -0.018654f, 0.018543f, 0.026821f, 0.034521f, -0.061004f, 0.046657f, -0.049146f, 0.005730f, 0.019295f, -0.011991f, -0.028399f, 0.050983f, -0.025934f, -0.048051f, 0.017189f, -0.056089f, 0.029436f, -0.059580f, 0.040452f, -0.003058f, -0.041352f, -0.056049f, 0.003709f, 0.011600f, -0.036223f, -0.026394f, -0.056366f, 0.028217f, -0.041093f, 0.015302f, -0.050274f, 0.015975f, -0.005245f, 0.016044f, 0.022399f, -0.016479f, -0.060172f, -0.005018f, -0.039605f, -0.011997f, -0.061918f, -0.056874f, 0.002233f, -0.041429f, -0.027843f, -0.054469f, 0.045764f, -0.055726f, 0.034952f, -0.036351f, 0.051297f, -0.011207f, 0.056286f, -0.040821f, -0.024738f, 0.048650f, -0.013659f, 0.037740f, 0.016081f, 0.053204f, 0.001599f, 0.007837f, 0.033605f, -0.034787f, -0.001950f, 0.031569f, 0.047582f, 0.018820f, 0.023549f, 0.026889f, -0.011459f, -0.011540f, 0.007149f, -0.006338f, -0.052017f, -0.062238f, 0.026403f, -0.055900f, 0.046602f, 0.048314f, 0.026042f, -0.055747f, -0.051760f, -0.040615f, -0.000458f, -0.000883f, -0.035780f, 0.046298f, 0.052546f, -0.008289f, 0.046112f, 0.011944f, -0.066098f, -0.048327f, 0.036749f, -0.007824f, 0.018240f, 0.059872f, -0.009190f, -0.033856f, -0.032624f, -0.052255f, 0.048616f, 0.022165f, -0.010274f, -0.021298f, 0.039578f, 0.029047f, 0.032326f, -0.042815f, 0.020926f, 0.007385f, 0.039918f, 0.021126f, 0.000067f, -0.040889f, -0.054109f, -0.005991f, 0.056931f, -0.053988f, 0.002931f, 0.033048f, -0.011983f, 0.050079f, -0.010091f, 0.037431f, -0.007995f, -0.058319f, 0.028192f, -0.052875f, -0.054719f, 0.041790f, -0.054792f, 0.037511f, 0.042289f, 0.043829f, -0.010030f, -0.056208f, -0.051932f, -0.002187f, -0.012888f, 0.029274f, -0.045266f, 0.036416f, -0.009232f, 0.037448f, 0.008225f, 0.001817f, 0.028543f, -0.005473f, -0.033797f, -0.003481f, 0.058231f, 0.043866f, 0.044375f, 0.052511f, 0.012660f, -0.030482f, 0.034269f, -0.015648f, -0.005300f, -0.047368f, -0.037159f, 0.012655f, 0.007551f, -0.003140f, -0.016401f, 0.015750f, 0.030258f, 0.010617f, -0.012866f, 0.047635f, -0.060598f, -0.056180f, 0.023606f, 0.002285f, -0.047204f, -0.060641f, 0.011488f, 0.057972f, 0.023678f, 0.025334f, -0.045212f, 0.041849f, 0.049653f, -0.029552f, 0.005343f, -0.062377f, -0.058134f, -0.004773f, 0.022404f, 0.051181f, 0.005833f, -0.054777f, 0.000782f, 0.056399f, -0.020344f, -0.049020f, -0.027838f, 0.018665f, 0.038134f, -0.039234f, -0.045256f, -0.054546f, -0.051647f, -0.021882f, -0.020178f, -0.007865f, -0.064950f, 0.010736f, -0.008499f, -0.037071f, 0.044752f, 0.033811f, -0.041001f, -0.059172f, 0.018771f, -0.010921f, 0.037466f, -0.030298f, -0.031900f, -0.053263f, 0.005194f, 0.040324f, 0.034525f, 0.047693f, 0.039460f, -0.025612f, 0.002363f, 0.004348f, -0.063942f, 0.031762f, 0.035514f, 0.026316f, -0.011949f, 0.046031f, 0.002477f, 0.019965f, 0.024936f, -0.020114f, 0.023934f, 0.017982f, 0.033836f, -0.029930f, -0.008530f, -0.028310f, 0.033934f, -0.032477f, -0.027625f, 0.015994f, 0.047253f, -0.058212f, 0.054246f, -0.002091f, 0.031347f, 0.021542f, -0.040491f, 0.038920f, 0.045834f, -0.032221f, 0.035015f, 0.001813f, -0.040329f, 0.042475f, 0.033366f, -0.032649f, 0.023856f, 0.042236f, -0.019229f, -0.059471f, 0.006604f, 0.019672f, 0.059118f, 0.057326f, -0.035994f, 0.016365f, -0.021772f, -0.013220f, -0.050044f, 0.029945f, 0.004105f, -0.038267f, 0.046633f, 0.062173f, 0.027750f, 0.042266f, -0.018070f, 0.027290f, -0.045197f, 0.007984f, 0.028722f, -0.010478f, -0.004387f, 0.059827f, -0.022132f, 0.020281f, -0.009116f, 0.050741f, -0.061543f, 0.060161f, -0.052703f, -0.055549f, 0.007543f, -0.045254f, 0.020603f, 0.035028f, -0.001194f, 0.013838f, 0.009479f, -0.000542f, 0.045906f, 0.037963f, -0.016811f, 0.000772f, 0.015135f, 0.007573f, -0.056390f, -0.009566f, 0.008655f, -0.005836f, 0.027561f, 0.003626f, 0.043391f, 0.020369f, 0.010098f, 0.054568f, 0.052007f, -0.028648f, -0.040389f, -0.040853f, 0.012829f, 0.050052f, -0.059040f, 0.036281f, 0.055751f, 0.034078f, -0.052514f, 0.028866f, -0.039207f, -0.026101f, -0.003093f, -0.040808f, -0.007508f, -0.055555f, 0.001108f, 0.018879f, -0.024872f, -0.018800f, -0.014378f, -0.015794f, 0.027948f, -0.048220f, 0.027237f, 0.040278f, 0.016252f, -0.058782f, -0.031749f, 0.018821f, 0.028431f, -0.034985f, 0.055319f, 0.033737f, -0.030681f, 0.008408f, -0.056981f, 0.061747f, -0.012667f, 0.005397f, -0.005854f, -0.011127f, -0.062725f, 0.050041f, 0.036980f, -0.010221f, -0.021891f, -0.016415f, -0.056512f, -0.014842f, -0.047369f, -0.045679f, -0.064361f, 0.040378f, -0.050188f, -0.009829f, 0.027463f, -0.033109f, -0.017281f, 0.033378f, 0.006084f, 0.049255f, -0.004487f, 0.011401f, 0.005521f, 0.038970f, -0.018803f, -0.010973f, -0.047460f, -0.059696f, -0.055272f, -0.064518f, 0.053028f, -0.016249f, 0.008711f, 0.041605f, -0.053381f, 0.037752f, 0.045733f, -0.065226f, 0.057621f, 0.040282f, -0.037659f, -0.031873f, 0.015536f, -0.002065f, -0.020590f, -0.011833f, -0.024152f, -0.054444f, -0.059586f, -0.061738f, 0.040100f, -0.070025f, 0.033101f, 0.004436f, -0.059723f, 0.023046f, -0.035853f, 0.051676f, -0.057116f, -0.057534f, -0.054801f, 0.025856f, 0.033374f, -0.021695f, -0.034931f, 0.054056f, 0.023504f, 0.042970f, -0.006061f, -0.018544f, -0.015809f, 0.038676f, -0.046806f, -0.035372f, -0.048824f, 0.003121f, 0.039026f, -0.004431f, -0.054120f, 0.021415f, -0.052683f, -0.049749f, -0.060464f, 0.005897f, -0.048068f, 0.006749f, -0.008069f, 0.012010f, -0.016982f, -0.038115f, -0.053710f, 0.009636f, 0.049446f, -0.020958f, 0.002072f, -0.063655f, 0.020599f, 0.051426f, 0.014873f, 0.025811f, 0.047701f, 0.005674f, 0.004904f, -0.004970f, -0.021070f, -0.044659f, -0.015467f, 0.059527f, -0.053966f, -0.014286f, -0.042026f, 0.025506f, -0.040287f, -0.010494f, 0.018147f, -0.012157f, 0.020067f, 0.027636f, 0.019857f, -0.041027f, -0.000999f, -0.046067f, 0.021226f, 0.024569f, 0.048981f, 0.020521f, 0.040575f, -0.025415f, -0.025353f, 0.013264f, 0.016939f, -0.067675f, -0.000182f, -0.003571f, -0.043602f, 0.045490f, -0.008514f, -0.002093f, 0.053953f, 0.033479f, -0.013799f, -0.005285f, -0.009170f, 0.014821f, 0.010708f, 0.033643f, 0.006286f, -0.029306f, -0.025912f, -0.049773f, -0.045758f, -0.023420f, 0.031363f, 0.053144f, 0.010462f, -0.058142f, -0.037366f, -0.042018f, -0.052847f, -0.012084f, 0.049249f, 0.048108f, 0.045972f, -0.021937f, -0.066340f, 0.037094f, 0.007722f, -0.014640f, 0.011872f, 0.014667f, 0.010614f, 0.043276f, -0.057237f, 0.021442f, 0.047540f, -0.013309f, 0.051581f, 0.022631f, -0.032941f, -0.005800f, -0.062785f, -0.059354f, 0.050185f, 0.032542f, 0.046613f, 0.054231f, 0.053592f, 0.062316f, 0.047729f, 0.033130f, -0.032678f, 0.004424f, -0.024270f, 0.027345f, -0.001371f, -0.025597f, -0.057540f, -0.025448f, 0.030528f, 0.008790f, -0.043335f, -0.021381f, -0.022298f, 0.040897f, -0.003504f, -0.008935f, 0.034809f, 0.028938f, -0.016437f, -0.061423f, -0.010283f, -0.030869f, 0.006720f, 0.053846f, -0.000197f, 0.001989f, 0.030186f, 0.027242f, -0.045496f, -0.006470f, 0.018104f, 0.025545f, 0.001354f, 0.010237f, -0.005240f, 0.022810f, 0.018520f, -0.049628f, 0.036794f, -0.052095f, -0.058558f, 0.015644f, -0.015697f, -0.016022f, -0.044251f, -0.042012f, -0.059189f, 0.048660f, 0.019170f, 0.031620f, 0.038271f, -0.057868f, -0.083851f, -0.012582f, 0.052843f, -0.027687f, -0.058268f, -0.021074f, 0.066896f, 0.048054f, -0.067670f, 0.051919f, 0.060015f, -0.045012f, 0.006534f, 0.051389f, -0.010849f, -0.048469f, -0.019780f, -0.041622f, 0.035859f, 0.030678f, 0.029918f, -0.048515f, -0.030325f, 0.018263f, 0.004819f, 0.006492f, 0.053138f, 0.041764f, 0.031370f, 0.012129f, -0.007348f, 0.066338f, 0.035943f, -0.037628f, -0.017117f, -0.071772f, 0.032681f, 0.051585f, -0.017967f, 0.022054f, -0.000268f, -0.000596f, -0.039578f, -0.057834f, 0.014191f, -0.027402f, -0.050778f, 0.013060f, -0.031572f, 0.056154f, 0.039269f, 0.044439f, -0.058330f, -0.038447f, -0.020487f, 0.038673f, -0.050840f, 0.021195f, 0.044092f, -0.012773f, 0.059755f, 0.010898f, -0.013026f, -0.048750f, -0.018706f, -0.030235f, 0.009195f, 0.051693f, 0.015599f, 0.059400f, 0.029739f, 0.022423f, -0.047487f, -0.029063f, 0.041477f, 0.035991f, -0.019233f, -0.052385f, 0.036303f, 0.036857f, 0.033893f, 0.047005f, 0.055485f, -0.017548f, 0.060308f, -0.021924f, 0.034394f, -0.060518f, 0.046299f, 0.024336f, -0.038631f, -0.018422f, -0.039492f, -0.008162f, 0.010611f, -0.051891f, -0.054770f, -0.053411f, -0.071852f, 0.001015f, -0.027101f, -0.026400f, -0.073942f, 0.062442f, -0.025858f, 0.025435f, 0.017396f, -0.050028f, 0.001813f, -0.018010f, -0.008581f, 0.061801f, 0.022911f, 0.010453f, 0.073858f, 0.019177f, 0.002574f, 0.015897f, -0.000583f, -0.031216f, 0.030511f, 0.018603f, 0.005435f, -0.073921f, 0.048493f, -0.014605f, -0.038862f, -0.032208f, 0.061472f, 0.025011f, 0.033232f, 0.004498f, 0.049542f, 0.043238f, 0.041144f, 0.059983f, -0.061470f, -0.040490f, 0.020346f, 0.054240f, 0.027087f, -0.046836f, 0.030605f, 0.007885f, -0.052702f, -0.064966f, -0.058134f, -0.002047f, 0.018978f, 0.001265f, -0.006142f, -0.060255f, -0.008515f, 0.048554f, -0.039255f, -0.050656f, 0.057382f, 0.020415f, -0.045151f, -0.026731f, -0.048055f, 0.030428f, 0.046869f, -0.039333f, -0.005173f, -0.018877f, -0.051685f, -0.069596f, -0.065901f, -0.022965f, 0.048216f, 0.051201f, 0.012555f, 0.062022f, -0.057200f, -0.044567f, -0.031234f, -0.037054f, 0.018499f, -0.042245f, 0.047440f, 0.029269f, -0.027006f, 0.055916f, 0.047901f, -0.019855f, -0.026025f, -0.052281f, 0.030857f, -0.029024f, 0.011988f, 0.008741f, -0.044256f, -0.048351f, 0.052331f, 0.006939f, 0.020225f, 0.011011f, -0.050095f, -0.054058f, 0.031451f, 0.009617f, -0.013927f, 0.022609f, 0.004288f, -0.004160f, 0.060100f, -0.080401f, -0.030677f, 0.057644f, 0.008179f, 0.039776f, 0.023151f, -0.049762f, -0.002219f, 0.026098f, -0.034174f, 0.011836f, -0.023880f, 0.037787f, -0.052018f, -0.028749f, -0.033542f, 0.014672f, 0.031047f, -0.044095f, -0.043132f, 0.010778f, -0.008951f, -0.016552f, -0.039580f, 0.002604f, 0.033202f, 0.045214f, 0.031125f, 0.040141f, 0.007543f, -0.028262f, 0.037166f, -0.050805f, -0.051165f, -0.053988f, 0.011141f, 0.022170f, -0.018922f, -0.028641f, -0.002478f, 0.002899f, 0.024357f, -0.063691f, 0.048180f, -0.000880f, -0.008249f, 0.003559f, -0.057969f, -0.041546f, -0.040384f, 0.053356f, -0.020979f, 0.037859f, 0.056060f, -0.018115f, 0.042832f, 0.020599f, 0.034842f, -0.040811f, -0.003729f, -0.043414f, 0.004938f, 0.020394f, -0.048182f, 0.016259f, 0.007144f, -0.036243f, 0.027017f, -0.041932f, 0.000735f, -0.054475f, 0.001268f, 0.056001f, -0.059118f, 0.051129f, 0.010331f, -0.065051f, 0.010737f, -0.039060f, -0.008688f, -0.009215f, -0.023026f, -0.031900f, -0.029413f, 0.003782f, -0.047898f, 0.035764f, -0.015775f, 0.026618f, 0.000638f, 0.000733f, -0.001462f, -0.030447f, 0.029428f, -0.045533f, 0.017249f, -0.004934f, -0.018039f, 0.003091f, 0.023896f, -0.007598f, -0.039902f, 0.018122f, -0.052868f, 0.023247f, -0.024720f, -0.028396f, 0.012243f, 0.046903f, -0.021582f, 0.041397f, -0.007661f, -0.043439f, 0.054432f, -0.063522f, -0.035249f, 0.032303f, 0.041788f, -0.033483f, -0.018278f, -0.059476f, 0.027290f, 0.052556f, -0.031827f, -0.059298f, 0.017832f, 0.005657f, 0.043122f, 0.016854f, 0.026195f, 0.060923f, -0.060022f, -0.052889f, 0.050446f, -0.050996f, -0.048515f, 0.049402f, 0.009123f, 0.033663f, -0.019817f, 0.058550f, -0.043489f, -0.003701f, -0.011526f, 0.042279f, 0.042942f, -0.010491f, -0.048701f, -0.038740f, -0.026739f, -0.007940f, -0.025595f, 0.019038f, 0.044087f, 0.025413f, -0.002546f, 0.042107f, -0.015699f, 0.035124f, 0.005172f, -0.009626f, 0.055442f, 0.024501f, 0.027523f, -0.055498f, -0.019670f, -0.004218f, -0.033834f, -0.017320f, 0.010335f, 0.030463f, 0.055115f, -0.053025f, 0.011031f, -0.026971f, 0.010304f, -0.042351f, -0.052509f, -0.054796f, 0.047260f, 0.023465f, -0.048816f, 0.024174f, -0.064308f, -0.043494f, -0.014134f, -0.031652f, -0.020954f, -0.022609f, 0.012089f, -0.016217f, 0.054880f, -0.026194f, 0.031435f, 0.042166f, -0.011661f, 0.015601f, -0.009648f, 0.056907f, -0.038789f, -0.039575f, 0.048219f, 0.011787f, -0.005973f, -0.050107f, -0.027395f, 0.032263f, 0.049380f, -0.048517f, -0.057162f, 0.049084f, 0.059240f, -0.019270f, -0.037859f, -0.053949f, -0.051982f, -0.025315f, -0.042790f, 0.010519f, -0.037911f, 0.011079f, -0.031187f, 0.034850f, -0.012392f, -0.022498f, -0.008228f, 0.051071f, -0.036344f, -0.060302f, 0.002067f, 0.037887f, -0.009904f, -0.011744f, -0.062777f, 0.047946f, -0.002437f, 0.030051f, 0.045331f, 0.037955f, -0.007920f, -0.030249f, -0.008287f, 0.061211f, -0.042633f, -0.047722f, 0.050169f, -0.012931f, -0.053721f, 0.002297f, -0.035467f, 0.058095f, 0.017787f, 0.001524f, 0.006932f, 0.055199f, -0.018636f, -0.051681f, 0.006033f, 0.046937f, 0.039367f, 0.000708f, -0.031875f, 0.006006f, -0.012168f, -0.059096f, -0.010103f, -0.059198f, 0.013681f, 0.016394f, -0.047681f, 0.053753f, -0.039419f, -0.060417f, 0.028617f, 0.055379f, -0.041300f, -0.049849f, -0.007719f, -0.017019f, -0.007768f, 0.041192f, -0.057365f, 0.019212f, 0.001965f, -0.000888f, -0.050969f, 0.055379f, 0.002439f, -0.046924f, 0.058850f, 0.031735f, 0.042761f, -0.050517f, 0.041094f, 0.034642f, -0.047757f, -0.017129f, 0.042941f, 0.029706f, 0.027789f, -0.013556f, 0.019007f, -0.060937f, -0.004619f, 0.016836f, 0.046387f, 0.005994f, 0.015567f, -0.041148f, 0.034341f, 0.049048f, 0.042080f, -0.023005f, -0.041650f, 0.002885f, 0.015202f, 0.000067f, 0.028549f, -0.058366f, -0.065688f, 0.041570f, -0.056679f, -0.002246f, 0.071518f, 0.053437f, 0.018457f, -0.068352f, -0.014210f, -0.018970f, 0.036335f, -0.017041f, -0.050494f, 0.047644f, 0.004220f, 0.077407f, 0.002967f, -0.021818f, 0.013366f, 0.040112f, 0.080185f, 0.012627f, 0.026538f, 0.002440f, 0.035493f, 0.051983f, 0.005268f, 0.051851f, 0.042396f, 0.048656f, 0.028826f, -0.038909f, 0.027658f, -0.007296f, 0.057676f, 0.017231f, 0.052851f, 0.013389f, -0.061716f, 0.047178f, -0.011878f, 0.069346f, 0.071764f, 0.075632f, -0.021357f, -0.042299f, 0.003445f, -0.023218f, -0.024402f, -0.019442f, 0.001462f, 0.030609f, 0.036541f, -0.053174f, 0.071788f, 0.050891f, -0.000666f, 0.028463f, -0.052343f, -0.061184f, 0.019797f, 0.037391f, 0.007933f, 0.082684f, 0.015687f, 0.050121f, 0.090868f, 0.055421f, 0.016049f, 0.019412f, -0.035832f, 0.006878f, -0.072559f, -0.036742f, -0.018044f, -0.028428f, -0.056860f, -0.001939f, -0.020582f, 0.068708f, 0.071225f, 0.023026f, 0.019916f, 0.019780f, 0.079754f, -0.070735f, 0.073017f, 0.025870f, -0.003835f, 0.052014f, -0.030422f, -0.034439f, -0.055429f, 0.007775f, 0.061834f, -0.060260f, -0.058037f, -0.021902f, -0.055285f, 0.001132f, -0.081299f, 0.009459f, -0.032590f, 0.016882f, 0.048007f, 0.078180f, -0.036056f, -0.022141f, -0.051215f, -0.017039f, -0.034842f, -0.024002f, -0.016804f, -0.032788f, 0.022956f, 0.052747f, -0.030868f, -0.016152f, 0.039899f, -0.028032f, 0.032726f, -0.025488f, 0.019390f, -0.039701f, -0.009567f, 0.022115f, 0.030576f, 0.027156f, -0.020819f, -0.033582f, -0.011586f, -0.011392f, 0.067981f, -0.016777f, 0.053798f, -0.009550f, -0.025896f, 0.032008f, -0.002177f, -0.004571f, -0.041392f, 0.031139f, -0.014671f, 0.027668f, 0.037938f, 0.084033f, 0.057110f, -0.051448f, -0.017078f, 0.008116f, 0.020833f, -0.017639f, -0.022646f, -0.034671f, 0.017377f, 0.032333f, -0.043687f, 0.023415f, 0.028083f, 0.014272f, 0.043325f, -0.004409f, 0.032426f, 0.023719f, 0.076099f, -0.052023f, -0.016793f, -0.005632f, -0.057186f, -0.001655f, -0.040833f, 0.006838f, -0.018766f, -0.021437f, 0.015426f, 0.087238f, -0.001118f, 0.001841f, -0.015436f, -0.004996f, -0.052753f, -0.021169f, 0.053162f, 0.031755f, -0.053808f, -0.055243f, 0.060228f, -0.038141f, 0.047362f, -0.022824f, 0.088340f, -0.027193f, 0.000678f, 0.011227f, 0.045366f, -0.014031f, 0.069750f, -0.049386f, 0.054120f, 0.042791f, -0.002122f, 0.008322f, 0.067664f, 0.010549f, 0.042672f, -0.047455f, 0.011915f, 0.042288f, 0.049306f, -0.011887f, 0.014575f, -0.063261f, -0.024147f, 0.047471f, 0.009103f, -0.008484f, -0.069087f, -0.053229f, -0.007773f, 0.037096f, -0.000453f, 0.027594f, 0.064813f, 0.055554f, 0.084112f, -0.004590f, 0.096634f, 0.022070f, 0.082913f, 0.019423f, -0.033494f, 0.035324f, 0.031576f, 0.013433f, 0.047116f, 0.043814f, -0.005443f, -0.054333f, -0.020424f, -0.006601f, -0.049598f, 0.048986f, -0.015074f, -0.001100f, -0.036040f, -0.019873f, -0.027401f, 0.002987f, -0.032593f, -0.037479f, -0.060024f, -0.015458f, 0.022134f, -0.048876f, 0.045356f, -0.027165f, 0.011349f, 0.013096f, -0.036002f, 0.003778f, -0.002080f, 0.040397f, 0.006679f, -0.031383f, -0.022801f, 0.017607f, -0.021996f, 0.045904f, 0.034740f, -0.024854f, -0.044292f, -0.013952f, 0.031804f, -0.051574f, 0.003910f, 0.017277f, -0.045881f, -0.059998f, 0.008707f, -0.009707f, 0.015157f, -0.026373f, -0.037822f, 0.024421f, -0.018766f, -0.040063f, 0.022951f, -0.029376f, 0.016699f, 0.001268f, -0.040513f, 0.054186f, 0.036177f, 0.024420f, 0.059234f, 0.045592f, 0.011250f, -0.025042f, -0.030685f, 0.007945f, -0.025795f, 0.038224f, 0.021393f, -0.027380f, 0.049789f, 0.026725f, -0.058709f, 0.023913f, 0.009840f, 0.022572f, -0.007954f, 0.004772f, 0.021469f, 0.043233f, 0.060427f, -0.061090f, 0.048491f, 0.019588f, -0.010162f, -0.059071f, -0.017123f, -0.012436f, 0.021346f, 0.059829f, -0.053681f, -0.001826f, 0.025422f, 0.021064f, 0.023731f, -0.033826f, -0.051258f, -0.027477f, 0.059875f, 0.033464f, 0.005317f, 0.056390f, 0.017533f, -0.059392f, 0.038117f, 0.056732f, -0.047518f, -0.006188f, 0.022769f, 0.036268f, -0.003853f, 0.015519f, -0.009359f, 0.013045f, -0.012097f, -0.049726f, -0.048371f, -0.044836f, -0.025633f, -0.027598f, 0.011195f, 0.042967f, 0.037537f, -0.060470f, -0.030162f, 0.019791f, -0.059271f, 0.025260f, -0.050776f, 0.054919f, 0.057788f, 0.011131f, 0.005589f, -0.031286f, 0.011238f, 0.023950f, -0.002367f, -0.044729f, -0.032167f, 0.042480f, -0.059361f, -0.057338f, 0.044649f, 0.058430f, -0.064967f, 0.039860f, -0.030573f, -0.033743f, -0.043198f, 0.023652f, 0.028136f, -0.031299f, 0.019098f, -0.043122f, -0.051144f, -0.011103f, 0.058691f, -0.046414f, 0.016855f, 0.045451f, 0.054492f, -0.015866f, 0.016761f, -0.047510f, 0.048291f, -0.015168f, 0.028497f, -0.019719f, -0.029186f, -0.039953f, 0.056389f, 0.020300f, -0.026086f, -0.024138f, -0.008562f, -0.019652f, -0.047547f, 0.027111f, 0.006266f, -0.041268f, -0.030752f, -0.002743f, -0.017882f, -0.059181f, 0.051985f, -0.057568f, -0.063514f, -0.021335f, 0.045014f, 0.041316f, -0.053472f, -0.060991f, -0.002171f, 0.013381f, -0.041487f, 0.035290f, 0.014311f, -0.009883f, 0.031775f, -0.030789f, -0.009449f, -0.009665f, 0.024526f, -0.001231f, -0.048051f, 0.048076f, 0.030383f, 0.031224f, 0.026539f, -0.058369f, -0.003503f, 0.017353f, -0.001975f, -0.004764f, -0.020292f, -0.047684f, 0.041314f, -0.060749f, -0.022087f, -0.016026f, -0.017042f, -0.051811f, 0.011268f, -0.006814f, -0.059239f, 0.012308f, -0.046590f, -0.030774f, -0.009467f, -0.034514f, 0.042752f, -0.034908f, -0.000021f, 0.029444f, 0.060589f, 0.038964f, 0.008859f, 0.036088f, -0.060632f, 0.049166f, 0.037963f, -0.050143f, -0.014647f, 0.011970f, 0.037799f, -0.047384f, -0.005857f, 0.060712f, -0.010762f, -0.031930f, -0.058071f, -0.009475f, -0.016254f, 0.019760f, 0.036165f, 0.051916f, 0.006393f, 0.030986f, -0.038823f, -0.020588f, -0.023268f, 0.006933f, -0.052577f, -0.054032f, 0.017836f, -0.018908f, -0.051221f, -0.017200f, -0.003226f, -0.051141f, 0.054857f, -0.007291f, 0.055205f, -0.056016f, 0.005961f, -0.038934f, -0.018248f, 0.050721f, -0.051061f, -0.053368f, -0.050935f, -0.060996f, 0.056718f, -0.029189f, -0.037837f, 0.004792f, 0.041177f, 0.015229f, -0.018515f, -0.001421f, 0.011230f, 0.042037f, -0.034176f, -0.020150f, -0.024030f, 0.062614f, -0.061090f, 0.052207f, 0.003401f, 0.035554f, 0.014429f, -0.013595f, 0.049223f, 0.035068f, -0.053122f, -0.061581f, 0.022779f, 0.023778f, -0.043414f, -0.057944f, -0.020171f, -0.037442f, 0.046250f, 0.041170f, 0.030295f, -0.046672f, 0.007464f, 0.041860f, -0.047263f, 0.018973f, -0.061208f, 0.028330f, -0.025581f, -0.057570f, -0.015434f, -0.037184f, 0.015465f, -0.013552f, 0.058734f, -0.029808f, 0.019340f, -0.043419f, 0.019326f, -0.058681f, -0.057208f, 0.061181f, 0.036430f, 0.002264f, -0.036382f, -0.008038f, -0.035428f, 0.039347f, -0.052162f, 0.045231f, 0.025420f, -0.024363f, 0.001501f, 0.039054f, -0.021067f, -0.060724f, -0.003217f, -0.046432f, 0.045317f, -0.004797f, 0.007150f, 0.021317f, -0.064664f, 0.026622f, -0.029623f, 0.034189f, -0.024677f, 0.013113f, -0.039032f, -0.042749f, -0.047353f, 0.056092f, -0.038374f, 0.043881f, 0.051347f, -0.053344f, -0.035932f, -0.035656f, 0.030901f, 0.022813f, -0.009404f, -0.004030f, 0.052380f, -0.011109f, -0.009215f, -0.042695f, -0.018075f, 0.028327f, -0.028281f, -0.058438f, 0.032153f, -0.055938f, 0.040183f, -0.004910f, -0.060034f, 0.024664f, -0.007126f, -0.028589f, -0.014102f, 0.004847f, -0.059156f, -0.052884f, 0.059642f, -0.036057f, -0.005855f, -0.031835f, -0.001871f, -0.061639f, 0.021841f, -0.023192f, -0.059838f, 0.050877f, 0.039543f, -0.002831f, -0.043007f, -0.021919f, -0.040024f, 0.004609f, -0.046122f, -0.020764f, -0.000200f, -0.063455f, 0.042810f, 0.047914f, 0.019229f, -0.032932f, 0.059433f, -0.020737f, -0.007801f, 0.000789f, 0.026489f, -0.013280f, -0.010479f, -0.005705f, 0.026261f, 0.046413f, -0.042629f, 0.028060f, -0.025276f, -0.039934f, 0.053816f, -0.022504f, -0.015713f, 0.012089f, -0.015463f, -0.017694f, 0.012009f, -0.007867f, 0.055269f, 0.046632f, -0.059416f, -0.016466f, -0.012800f, -0.060967f, -0.039525f, 0.045063f, -0.004084f, -0.057865f, -0.050145f, 0.053086f, -0.054123f, -0.008927f, 0.014870f, 0.000225f, 0.011072f, 0.052011f, 0.021311f, 0.023212f, -0.002037f, 0.014715f, 0.001873f, -0.036720f, 0.029672f, 0.007975f, -0.005313f, 0.012506f, -0.009878f, -0.047273f, 0.005357f, -0.036547f, 0.028004f, -0.062158f, -0.007476f, 0.005841f, 0.010846f, -0.047228f, -0.062231f, -0.006702f, 0.023993f, -0.008398f, -0.047055f, -0.019458f, 0.009110f, 0.049158f, -0.030313f, 0.001539f, 0.047394f, 0.006614f, 0.026214f, -0.010474f, 0.060056f, -0.022714f, 0.026665f, -0.051182f, -0.008901f, 0.008439f, 0.006478f, 0.047028f, 0.028374f, -0.050918f, 0.014579f, 0.017149f, -0.008970f, -0.017422f, 0.064578f, 0.009542f, 0.026321f, 0.012186f, 0.087825f, 0.037105f, -0.027262f, 0.028778f, -0.057186f, -0.009512f, 0.055622f, -0.022988f, 0.101924f, 0.039390f, 0.016485f, -0.048815f, 0.036877f, 0.009011f, -0.023897f, 0.052295f, 0.051738f, -0.019072f, -0.017375f, 0.033767f, -0.024127f, -0.020164f, 0.003906f, 0.080646f, -0.033008f, 0.055493f, 0.031922f, 0.071825f, -0.048288f, 0.000472f, -0.006139f, 0.002991f, -0.002300f, 0.008486f, -0.007829f, 0.082421f, -0.040183f, 0.068682f, -0.024942f, -0.060989f, -0.025330f, -0.023247f, 0.067454f, 0.026070f, 0.029858f, 0.045827f, -0.055997f, -0.043910f, 0.004392f, 0.050219f, -0.017257f, 0.013831f, 0.016928f, 0.003560f, 0.014893f, 0.057090f, -0.038410f, -0.043410f, -0.038250f, 0.055836f, 0.046695f, -0.058057f, 0.022493f, 0.056397f, 0.067260f, 0.004311f, 0.046063f, -0.018281f, -0.023915f, -0.042865f, -0.011191f, 0.067403f, 0.018416f, 0.014915f, -0.017216f, 0.022787f, 0.012914f, 0.053512f, 0.052599f, 0.044274f, 0.015079f, 0.015436f, -0.000722f, -0.026038f, -0.036761f, 0.028155f, -0.037140f, -0.014424f, 0.029093f, -0.014025f, 0.052904f, 0.047397f, 0.046000f, -0.040602f, 0.045483f, -0.048770f, 0.018722f, 0.043280f, -0.007176f, 0.069514f, 0.013284f, 0.077551f, 0.052236f, -0.023607f, 0.036396f, 0.051806f, 0.026233f, 0.030482f, 0.059889f, -0.048503f, 0.072404f, 0.043902f, -0.024966f, -0.054963f, -0.012279f, -0.079853f, -0.005683f, -0.004171f, 0.003213f, -0.034531f, -0.054839f, 0.005432f, -0.030016f, -0.043679f, 0.056701f, 0.033871f, -0.036573f, -0.024151f, 0.046069f, -0.012951f, 0.023695f, -0.027338f, 0.008704f, -0.016167f, -0.003302f, 0.042723f, 0.063206f, 0.012552f, -0.043233f, -0.072219f, -0.033541f, -0.046736f, 0.053811f, -0.003533f, 0.071483f, -0.060290f, 0.031737f, -0.000989f, 0.037771f, -0.043087f, 0.031727f, 0.064998f, 0.035339f, 0.025760f, -0.054839f, 0.041360f, 0.024062f, -0.030678f, -0.039848f, 0.028077f, 0.075364f, 0.006239f, 0.008871f, 0.009765f, -0.043766f, 0.057961f, 0.038920f, 0.032139f, -0.008527f, -0.047458f, 0.003351f, 0.051718f, 0.075341f, 0.051379f, 0.046119f, -0.017711f, 0.042752f, -0.044134f, 0.023097f, -0.028032f, 0.049338f, -0.010055f, 0.033442f, -0.007386f, -0.023154f, 0.059003f, -0.037640f, -0.048043f, 0.043490f, 0.029103f, 0.059635f, 0.059706f, -0.006101f, -0.005468f, -0.016277f, -0.011332f, 0.059901f, 0.008174f, 0.048927f, -0.035978f, 0.063047f, 0.007426f, 0.024966f, 0.011343f, 0.055746f, -0.005156f, -0.078842f, 0.032272f, 0.058728f, 0.034270f, -0.018072f, 0.004325f, 0.013651f, 0.058746f, 0.070687f, 0.014479f, -0.081698f, -0.048896f, 0.008509f, -0.052986f, 0.015065f, -0.041299f, 0.046031f, 0.030389f, 0.003176f, 0.016174f, -0.018710f, 0.011038f, 0.062360f, 0.029841f, 0.037263f, -0.011476f, -0.056206f, -0.043815f, -0.023451f, 0.026371f, 0.011531f, 0.018686f, 0.062731f, 0.055984f, -0.029125f, -0.048041f, -0.033460f, 0.019726f, -0.002084f, 0.071176f, 0.024206f, 0.023430f, 0.002476f, -0.021458f, 0.027504f, 0.057810f, -0.004112f, 0.057633f, 0.052068f, -0.015475f, -0.008758f, 0.046742f, 0.048755f, 0.009825f, 0.030925f, -0.017249f, -0.035197f, 0.033078f, -0.016362f, -0.061720f, -0.045533f, -0.049571f, -0.060927f, -0.005656f, -0.054418f, -0.022210f, 0.037219f, -0.026614f, 0.008413f, -0.022468f, 0.009903f, -0.061799f, -0.038031f, 0.025857f, -0.035380f, 0.044448f, -0.070117f, -0.010179f, 0.058697f, -0.032359f, -0.018361f, -0.021412f, 0.009332f, -0.037953f, 0.001814f, -0.012615f, 0.027814f, 0.047717f, 0.040998f, -0.044537f, 0.044814f, -0.011289f, 0.017643f, 0.056738f, 0.030571f, -0.057521f, -0.020962f, -0.033786f, 0.027428f, -0.056505f, 0.024079f, -0.036545f, 0.044358f, -0.027454f, -0.055840f, -0.031769f, 0.042040f, 0.045548f, -0.062681f, -0.010339f, -0.035595f, -0.027445f, 0.040393f, -0.035845f, -0.011066f, -0.051293f, -0.002552f, -0.007540f, -0.051866f, 0.016349f, -0.003977f, -0.006026f, -0.005894f, -0.002343f, 0.004343f, 0.055545f, 0.018144f, 0.053934f, 0.022472f, -0.014021f, -0.037368f, 0.045620f, -0.052353f, 0.001880f, 0.013333f, -0.003738f, 0.043569f, -0.004108f, -0.011378f, -0.006033f, -0.053086f, -0.001977f, 0.046119f, 0.037399f, -0.037983f, 0.059519f, -0.043335f, -0.017006f, 0.058862f, -0.000286f, -0.035534f, 0.051115f, -0.049823f, 0.050723f, -0.002809f, -0.056613f, -0.032049f, 0.035223f, 0.000053f, -0.045272f, 0.040711f, 0.047016f, -0.059477f, -0.001819f, 0.035408f, 0.049856f, -0.050344f, 0.014432f, -0.001391f, 0.007634f, -0.017711f, -0.052937f, -0.016810f, 0.035287f, -0.050936f, 0.037127f, -0.009128f, 0.045074f, -0.047145f, 0.060798f, 0.061040f, 0.023302f, 0.010670f, -0.029410f, -0.011797f, 0.045202f, 0.068267f, -0.013854f, 0.009236f, -0.047665f, 0.033380f, 0.006867f, -0.003777f, 0.051838f, 0.019870f, -0.058871f, -0.061826f, -0.004760f, -0.059376f, 0.011759f, 0.050196f, -0.023181f, -0.033662f, -0.023463f, 0.034268f, 0.033725f, 0.000653f, 0.036452f, 0.062137f, 0.034081f, -0.013508f, -0.036451f, 0.053060f, -0.040525f, 0.010872f, 0.006220f, 0.014396f, -0.042274f, 0.031621f, -0.002771f, -0.015879f, 0.052653f, -0.047927f, -0.054480f, 0.016053f, -0.028104f, 0.056826f, -0.034204f, 0.035380f, 0.059140f, -0.013297f, 0.030613f, 0.039140f, 0.002428f, 0.006152f, -0.022214f, -0.026151f, 0.043365f, 0.026313f, -0.011172f, -0.032003f, 0.010896f, 0.010091f, 0.037353f, -0.011744f, -0.057682f, -0.058051f, 0.023735f, 0.006449f, -0.037583f, -0.053315f, -0.008899f, -0.049183f, -0.002505f, 0.039014f, 0.032847f, -0.012817f, 0.060924f, -0.047005f, -0.044459f, 0.008569f, -0.053128f, 0.017754f, -0.037297f, -0.036954f, 0.041212f, 0.046853f, -0.033579f, -0.050709f, 0.051420f, -0.034490f, 0.015002f, -0.010990f, 0.041615f, -0.019111f, 0.024589f, 0.047712f, -0.009611f, -0.002622f, 0.004989f, 0.023788f, 0.058429f, 0.053701f, 0.012668f, -0.001419f, -0.029912f, 0.043732f, -0.025985f, -0.024294f, -0.004038f, 0.004140f, 0.005694f, 0.030057f, -0.002205f, 0.013313f, -0.013742f, -0.048320f, 0.049437f, 0.037049f, 0.045951f, 0.027994f, 0.014869f, -0.014736f, -0.015101f, 0.040354f, -0.060044f, -0.065769f, 0.054407f, -0.043726f, 0.041018f, 0.009336f, 0.020159f, -0.025786f, 0.051490f, 0.061394f, 0.020641f, 0.037833f, 0.033511f, 0.013620f, 0.003258f, -0.017088f, -0.030811f, 0.056863f, -0.009155f, -0.041000f, 0.013433f, 0.036032f, -0.058828f, 0.045729f, 0.054760f, -0.001640f, -0.029162f, -0.037255f, 0.017630f, 0.017740f, 0.055528f, -0.031214f, -0.045599f, -0.042037f, -0.057688f, 0.060760f, 0.006512f, 0.037996f, -0.018597f, 0.015019f, 0.020690f, 0.004690f, 0.054358f, 0.045999f, 0.027034f, 0.060283f, 0.018615f, -0.018633f, -0.018125f, 0.035513f, 0.029484f, -0.043034f, -0.056244f, 0.032266f, 0.030736f, -0.023657f, 0.052494f, -0.059766f, 0.030780f, -0.031976f, -0.027817f, -0.036377f, -0.052566f, -0.025922f, -0.033430f, 0.001369f, -0.059020f, 0.039220f, 0.000262f, -0.032807f, -0.059041f, -0.023840f, 0.050551f, -0.062573f, -0.021748f, -0.015018f, -0.008023f, 0.043994f, 0.050251f, -0.005825f, -0.014059f, 0.035885f, 0.049047f, 0.050076f, 0.014920f, -0.004485f, -0.052029f, 0.000395f, 0.033571f, 0.056824f, -0.055453f, 0.035775f, 0.022092f, -0.037144f, 0.017338f, 0.034918f, 0.007540f, -0.061914f, 0.017685f, -0.012815f, -0.002958f, -0.059040f, -0.021385f, -0.026090f, -0.035801f, 0.033524f, -0.053839f, -0.000719f, -0.041112f, -0.006780f, -0.011581f, 0.050695f, 0.024818f, 0.037285f, 0.003425f, -0.009336f, -0.009389f, -0.063120f, 0.045260f, -0.015141f, 0.035085f, -0.017818f, 0.022926f, 0.007312f, -0.013467f, 0.050692f, -0.045675f, 0.033016f, -0.032479f, 0.057039f, 0.058832f, -0.064485f, -0.037403f, -0.025109f, -0.047664f, -0.044272f, 0.016525f, 0.017481f, 0.045621f, -0.015478f, -0.060396f, 0.048453f, 0.023462f, -0.035753f, -0.041689f, 0.031783f, -0.024990f, -0.042951f, -0.064656f, 0.040174f, -0.040002f, -0.002955f, 0.008926f, 0.023444f, -0.038016f, -0.008871f, 0.025618f, -0.065467f, -0.009966f, -0.051420f, -0.050098f, 0.013020f, 0.056607f, 0.053227f, -0.059734f, 0.053544f, 0.046188f, 0.043153f, 0.013838f, -0.021072f, 0.000960f, 0.060810f, 0.047186f, 0.046082f, -0.057150f, 0.057025f, -0.055260f, 0.029277f, -0.065776f, 0.038040f, -0.048631f, 0.058181f, 0.048425f, 0.042565f, -0.026132f, -0.061287f, 0.052669f, -0.046660f, 0.048014f, -0.028262f, -0.047851f, 0.027355f, 0.055224f, -0.005233f, 0.036886f, -0.004458f, 0.023155f, 0.020412f, -0.008271f, -0.053885f, 0.023329f, -0.023498f, -0.030776f, 0.027878f, 0.056241f, 0.020436f, -0.021905f, 0.037221f, 0.057064f, 0.013161f, 0.051944f, 0.037768f, 0.002119f, 0.034215f, -0.040092f, -0.034275f, 0.059722f, 0.019865f, 0.035363f, 0.062354f, -0.064040f, 0.052852f, 0.002803f, 